{"layers":[{"weights":[[-0.00058558583,-0.014539376,-0.0134109035,0.0027067885,-0.022263696,0.045351412,-0.027562313,-0.0061664656,-0.032246076,-0.027095746,-0.0380741,-0.034618013,-0.04482331,0.023969423,-0.0025495403,-0.007517699,0.019336846,-0.03244823,0.011624299,-0.011230856,-0.00829665,0.025187414,0.0327452,-0.007889606,0.007736057,-0.021145249,-0.02646928,-0.004252564,0.03232943,0.010393627,0.038484607,0.045882847,0.0065949745,-0.012677744,0.010836855,-0.016360829,-0.027462427,0.04122417,-0.005224701,-0.0202438,0.022636306,0.0023133196,0.017120022,-0.004421275,0.022562299,0.030971933,0.03460041,0.010924391,0.019138526,-0.04582164,-0.0055113174,0.02333093,0.03466839,0.009365197,0.016312193,-0.010451507,0.040401656,0.012117814,-0.009306546,0.024179522,-0.032957256,-0.031469177,0.03493466,0.020040024,0.01174536,0.010747369,0.026434477,0.020650875,-0.010510273,-0.034934662,0.021105599,-0.018998723,0.0017894506,-0.03973355,0.0423748,-0.041910548,-0.028341286,0.0041551404,-0.0007821135,-0.004971843,-0.0045123845,0.03805324,0.003411673,0.024714608,-0.013387565,0.024585452,0.020750146,-0.04032118,-0.028737316,-0.024805594,-0.023839492,0.018602911,-0.021605,-0.01992003,-0.043219775,0.011432104,0.04453073,-0.022600338,0.0126527175,-0.011220232,-0.029725611,-0.025564598,-0.044825885,0.023772415,-0.017850904,-0.045812193,-0.032086957,0.044257063,0.03639001,-0.0067646615,0.015518736,-0.036099754,-0.0025756806,-0.0017764531,0.0030191466,-0.031764947,0.017726008,0.010177445,-0.015786368,-0.04646808,0.019444909,0.025824305,0.02704266,0.035422016,0.04503789,0.025381435,-0.03521148,-0.010375425,0.022541437,0.0056953505,0.045118842,-0.021926602,-0.020810321,-0.03015343,-0.019655809,-0.0128158815,0.0007959716,-0.016174778,0.007968422,0.026927296,0.030497845,0.045850944,0.035005275,0.044454608,0.01835725,0.022363309,0.013743598,-0.01407044,-0.02112072,-0.009201035,-0.014385421,0.0030683987,-0.03496689,-0.03262292,-0.042695574,0.014455356,0.044733968,0.021329824,-0.024489231,0.0038487688,0.008973159,-0.041534305,-0.028972019,-0.028487012,-0.011897195,0.029000837,-0.032735854,0.041372243,-0.040858667,0.017324422,0.042366344,0.0017736293,0.02476852,-0.018336477,-0.03527426,-0.03340309,-0.009352509,-0.026346495,-0.005087275,0.027318735,0.0047349744,0.0073213503,-0.0072468333,0.042548943,-0.039766323,0.021680955,-0.038990118,0.018174548,0.0314478,0.018622983,-0.01886782,0.03806768,-0.013851367,0.03869531,-0.04250171,0.045454193,0.017146189,-0.045955278,0.02074476,0.0057608075,-0.034870476,-0.032614402,0.020511385,0.043096196,0.025028605,-0.0066562556,-0.045136668,0.019301329,-0.04645243,0.046407502,0.0012728497,-0.016772678,-0.018890128,-0.020663632,-0.003389366,-0.025763905,-0.004097156,-0.026801031,0.04696158,-0.011148434,-0.016563527,-0.029370032,-0.02155101,0.043969367,-0.039216746,-0.010635905,-0.044522766,0.033011835,-0.032270696,0.03198349,-0.032285847,0.014130849,-0.04174491,-0.03326068,-0.018995684,0.007379357,-0.016343422,-0.0012940206,-0.021155579,-0.04499639,-0.029235773,-0.04157333,-0.026334304,-0.03903201,-0.019526653,0.021235902,0.04466537,-0.03432501,-0.02161726,0.020334605,-0.035051513,-0.030374397,-0.0037364177,0.0068040676,-0.0024446547,-0.017329765,0.035570707,0.02659652,0.047475766,0.03388423,0.039515574,0.010709912,-0.025216503,0.04008362,-0.031080972,-0.013747737,-0.034184583,-0.02779529,0.03382547,-0.005753141,0.015485283,0.043594044,0.020127874,-0.03463744,0.0334463,-0.034649417,-0.00791537,0.02285071,0.01484457,-0.024004722,0.031832185,-0.0110406205,-0.03361026,0.03484183,0.01649652,0.0060584582,0.0418345,0.023172598,-0.023895266,0.00019972771,-0.039216474,0.036938135,0.03560995,-0.041145615,-0.012165908,-0.02152319,0.026759613,0.023736667,0.043994438,-0.0021757372,-0.023637475,-0.029204223,-0.010799535,0.004006125,-0.047066353,-0.037704024,0.026641618,0.007758647,-0.04522848,-0.041075837,0.04500064,-0.00067108124,-0.009025056,0.031737592,0.0155621655,-0.023590151,-0.04318073,-0.017574083,0.033819716,-0.0025237538,-0.011816159,0.03570581,-0.013095517,-0.0066207163,-0.025573863,0.009917285,-0.014736451,-0.03730135,-0.04150033,0.013576951,-0.0047175214,-0.0099378005,-0.017686523,-0.00957156,-0.030433785,0.0029290244,0.044373367,0.023740578,0.01310765,0.015102465,0.025489036,-0.019011572,-0.03724881,0.024083842,0.032379042,0.002044756,-0.01759224,0.018548641,-0.02162852,0.03571778,0.008535784,-0.019753031,-0.03305596,-0.0456888,-0.019466946,-0.03043111,-0.032161035,-0.010247096,-0.021745928,-0.03286339,-0.029162798,-0.045629025,0.015680123,-0.037534088,-0.000800509,-0.041696258,0.024420578,-0.035483945,0.019462522,0.030444313,-0.022469696,-0.0046858154,-0.024424285,-0.012881387,-0.041036077,-0.015763666,-0.00043004006,-0.019495025,0.038505916,-0.02268996,0.036736917,-0.0014869794,0.039758656,0.037161272,-0.03911925,-0.008004077,-0.03951458,0.019306902,0.005535245,-0.013243269,-0.029140014,0.005444158,-0.009315651,0.011045326,-0.012241844,0.036362384,-0.038116522,0.021521363,-0.0324595,0.020418022,0.04186854,-0.005860444,0.0047427565,0.035929922,0.04297622,-0.01793599,-0.025332674,-0.018555483,-0.025999049,-0.009406842,-0.0069501884,-0.047452472,-0.003670711,0.0316918,-0.023741908,0.03836057,-0.00019910187,-0.017682543,0.046687197,0.020534974,0.035864327,-0.038232543,0.045414258,-0.030265823,-0.0028777309,-0.032496527,-0.030565029,0.03380469,-0.0004908815,-0.028096367,0.011357382,-0.043238226,0.014629953,-0.012934107,-0.045155186,0.044131797,-0.004465606,-0.038854815,-0.005456656,-0.033391446,0.014168624,-0.019631632,-0.0034189783,0.019435775,0.012420025,-0.0039139986,0.0007157065,-0.04551621,0.046873633,0.019187767,-0.021668324,-0.042706475,-0.038157277,0.0063069947,-0.042178817,0.045214113,0.005435653,-0.003102623,0.045198623,0.01533391,0.0077562556,-0.01351383,0.028226603,-0.025519257,-0.04026856,0.03197368,0.001315657,-0.03529998,0.032125246,0.046846036,0.04412551,0.032068904,0.007904101,0.02263863,0.037493873,0.02265114,-0.027649408,-0.030489217,0.0023108236,-0.033419106,-0.016277023,-0.020846281,0.035560902,-0.0054771826,0.03656823,0.026680153,-0.0062708855,-0.04623204,0.033107433,0.045680966,0.019425746,-0.025613906,-0.004350908,-0.04379325,-0.009355232,0.024775963,0.04728139,0.014252976,0.033905867,-0.03171827,-0.013705868,0.029774953,-0.04448515,-0.029165225,0.028075907,0.021554682,-0.0036459677,0.026711944,0.040086467,-0.010127682,-0.0044726245,-0.041334704,0.0118129365,-0.03677343,0.01404988,0.04058418,0.018756527,-0.03662487,-0.026807483,0.02213334,0.0026015826,0.04634312,0.038316783,-0.017504204,-0.018277688,0.0031131469,-0.029358568,0.03275938,-0.015190601,-0.042635925,0.020800974,-0.021315807,0.016310718,0.028252978,-0.018853066,-0.033375196,0.029969882,-0.022923153,-0.018333755,0.027818728,0.024587486,-0.037803218,0.04244667,-0.0089716315,-0.002652999,-0.01018196,0.010185033,-0.0008373894,0.039691593,-0.0077781864,-0.020010322,0.00081922114,-0.037438646,0.024175588,-0.0056374,-0.030417819,0.012102764,-0.03224338,-0.035590816,-0.03544964,-0.028020738,-0.01447105,-0.014106784,-0.0067744367,0.0033940375,0.037247356,0.008604769,0.026358243,0.025294084,-0.0001545474,0.017093915,-0.036326572,-0.023326838,0.010433748,-0.045447305,0.03220732,0.0081842765,-0.02660322,-0.021653129,0.013472028,0.008289933,-0.032240562,0.00078161433,-0.039796796,0.037787233,-0.017013323,0.005562406,0.012977406,0.022287171,-0.013558172,0.047032546,0.03508949,-0.017775534,0.0010738485,0.026385788,-0.03877971,0.047135364,0.0046903864,-0.026674053,0.025595795,0.028132286,0.014715325,0.02827033,-0.0218775,-0.043178666,-0.00822271,0.003116563,0.006466102,-0.01147015,-0.04671327,0.011308469,0.031885426,0.04491466,0.010606851,-0.028164206,-0.027761156,-0.045351524,-0.024061538,0.024361994,-0.018242318,0.009532083,0.042454433,-0.025020303,0.038479213,-0.024865609,-0.0022148043,-0.042168815,-0.014584318,0.0007480718,0.028029826,0.041461397,-0.026754525,0.02088039,-0.034234185,-0.03227929,-0.04028186,0.0145739205,-0.0079403,0.023028653,-0.03958412,-0.033949632,-0.03570548,-0.032762267,0.029264797,-0.029091591,-0.025026098,-0.036991745,-0.02872169,0.042001884,-0.012607083,-0.011965454,0.026045386,-0.0006761253,0.036453117,0.024890069,0.018437687,0.046273682,-0.04648363,-0.04425884,-0.006824117,-0.013068821,0.019226383,-0.0268105,-0.026207224,-0.03739222,-0.019097498,-0.046589684,0.04654361,0.036096733,0.011335969,-0.025459176,0.0046324804,0.04457577,0.04287189,-0.0057013594,-0.015917487,0.037293967,0.015203621,0.023823094,-0.025642699,0.017590698,0.0054725558,0.040336,0.018454019,-0.0111739375,0.04116227,-0.0037538372,0.027815204,0.008817568,0.0398884,0.03478602,-0.03611819,0.009905841,0.044858407,0.047153074,-0.00555126,0.034835283,-0.007725943,0.03254408,0.016289417,0.04415111,-0.011274144,-0.037060082,0.0001580976,-0.027178396,0.02895825,0.02234884,-0.04018668,0.01579203,-0.03491731,-0.0013042502,-0.014229976,0.044660483,-0.013212141,0.032858323,-0.046805978,0.006438397,0.030991394,-0.006752286,-0.03381146,-0.003636565,0.020255309,0.030831505,0.032649,-0.01484229,0.008042056,-0.026940087,0.035960946,-0.032279506,0.008014806,0.04300261,-0.033305872,-0.01450184,0.040501695,-0.041290205,0.038988132,-0.024060393,-0.043104116,0.020679768,-0.031499118,0.013663977,-0.037102144,0.03725602,0.008309066,0.019154903,-0.04247015,-0.035971403,-0.043649293,-0.019247202,0.04048382,0.041330826,0.018352572,0.0016125292,-0.04476501,0.04484353,0.005390711,-0.03837007,-0.019953087,-0.017385414,-0.025972942,0.043690924,-0.024735,-0.043678395,-0.005998876,0.03979286,0.04255608,-0.0092336945,-0.04667048,0.042408098,0.0076810233,-0.035580147,0.028604183,-0.011780649,-0.0052536502,0.04587863,0.016656112,0.00033866987,0.046091486,0.045068968,-0.01726025,-0.0149420425,-0.031019269,-0.008938152,0.0048895106,-0.014654823,0.006338656,-0.026882432,-0.01614745,0.003008455,-0.020710412,0.023450699,-0.033389177,-0.023530954,0.021305542,-0.001265794,-0.04230532,-0.037036937,0.037516218,0.011585165,-0.008522131,-0.004478555,-0.036247835,-0.04237049,-0.033903487,-0.0009452477,0.030554924,-0.020572636,0.03471383,0.00013580173,-0.022087138,0.019401107,0.03381348,-0.03541173,-0.0042207204,-0.040899016,-0.01467222,0.018788043,0.027645532,0.037993174,-0.030622207,-0.036261737,-0.020744875,-0.038424276,-0.0351939,0.026440892,-0.03197819,0.029188458,-0.039704315,0.03807779,-0.04307676,-0.016269267,0.019799594,-0.00783753,0.005419936,-0.019400775,0.011229053,0.028043497,-0.013147499,-0.004625879,-0.018938947,0.014561728,0.016577829,0.010604944,0.03082082,0.024706181,0.0013849139,0.0068862177,-0.0011057481,-0.044222835,-0.0066836663,0.002250269,0.038718414,-0.037874117,-0.002524525,0.019301083,0.017499927,0.035679433,-0.009354085,-0.020248948,-0.045375418,0.0007523447,0.032232422,-0.011108004,-0.029834263,0.036082547,-0.018326486,0.03947516,0.028359193,0.034407955,0.009734206,-0.008056764,0.035517987,0.026571494,-0.03766592,0.028179858,-0.028862344,0.028521087,0.014755547,-0.023570646,0.047391552,-0.021067612,0.0347624,0.028132115,-0.017731363,0.04652581,-0.03736235,-0.031660967,0.03399731,0.013250809,0.003784217,0.039288063,-0.020927003,-0.040024024,0.0068357997,0.030455332,-0.037513666,0.0036111623,-0.023748701,-0.0036907159,0.013147805,0.02377316,-0.012432713,-0.006239768,-0.015748233,0.009346001,0.040930223,0.038591255,-0.041677605,0.032190565,-0.014337324,-0.030084161,0.03134686,-0.019135715,0.04508442,0.0031430759,0.0066198446,-0.0048128366,0.030106653,0.0010501333,0.005907133,-0.021360014,0.007986013,0.038230937,-0.02436933,-0.003246978,-0.03195136,-0.0130111985,0.033797715,-0.007853668,-0.013101403,-0.0065283924,-0.031137845,-0.041719325,-0.036333635,0.03894071,0.045396093,-0.003291227,0.0022678673,-0.019240547,0.04754286,-0.045579422,0.02404065,0.035296623,-0.009535328,0.025322873,-0.021841176,0.027467143,-0.030995307,0.040345233,-0.011970941,0.02780712,0.034184966,0.04359257,-0.039723977,0.004898332,0.0366793,0.019423809,0.012650244,-0.013041295,-0.016490325,0.021109898,0.029715959,-0.028267404,-0.030969314,0.039141458,0.022665586,-0.0050491393,0.02384073,0.044538658,0.01079737,0.03638703,-0.004636258,-0.037633374,-0.03341145,-0.032130506,-0.037039272,-0.047456965,0.04644302,-0.014072165,0.011964455,-0.046204653,-0.03261322,0.03301852,-0.03917449,0.017287385,-0.0074091926,0.002671644,0.022868391,-0.0030689426,-0.005283963,-0.03526605,-0.014899425,-0.028975386,0.041672584,-0.039974,0.04445215,0.013091534,0.025078636,-0.03183072,0.01461209,-0.02328726,0.016107317,-0.032422625,-0.04562203,-0.024005879,-0.01953635,0.002238974,0.015028942,0.04461052,-0.0286469,0.013383504,-0.014303576,0.036548886,0.00917729,0.043573383,0.0076192617,0.0023061857,-0.0211852,-0.025700195,-0.040208556,0.030439477,0.0263897,-0.025756296,-0.010335166,0.024813328,-0.030780587,-0.01313794,-0.042736333,-0.03711911,-0.029316936,-0.017476307,-0.027138216,0.045681033,-0.04587695,0.03898954,-0.012744553,-0.0049618185,0.016009424,0.038104285,0.0045774244,0.013669126,0.039346483,-0.045196854,-0.0034319945,0.032095846,0.047467668,0.009330634,0.00011892617,-0.02632563,-0.014432732,0.0060669854,-0.028860053,-0.03681473,0.0041307136,-0.03492383,-0.029289005,-0.012927122,-0.04487298,-0.02126303,-0.045882765,-0.02945148,0.035141464,0.0025263727,-0.04462162,-0.012839653,0.00617877,0.017467458,0.016417507,-0.0449958,0.009516887,-0.038485505,-0.03708087,0.04224332,-0.018386636,0.03362835,0.019580599,-0.016105693,0.031619225,0.03424808,0.04131041,0.0061965287,-0.035074126,0.033564027,0.042922053,0.011373814,0.034403827,-0.037193898,-0.043319855,-0.016913516,-0.035033733,-0.014845464,-0.043696776,-0.047396224,0.043547127,0.02532747,0.040190887,-0.03171242,-0.014993664,-0.040349495,-0.019699141,0.029512685,0.038274843,0.024635587,0.0013101473,-0.046663508,0.04409725,-0.03802446,0.016394239,0.037503194,-0.016294792,0.034660313,-0.029200653,-0.00933018,0.045556676,0.025212195,0.011819243,-0.03170314,0.026870262,-0.043537397,-0.024905719,-0.041948516,-0.046018362,-0.03741818,-0.011880912,0.012564477,0.008988287,0.024386216,0.00063746795,-0.0034810975,-0.019954652,0.036197145,-0.03306457,-0.041074578,-0.0026018433,0.021707494,0.03768413,0.020418692,0.0040464774,-0.012847159,-0.035726495,0.03611699,-0.028237091,-0.0044322647,-0.036257885,-0.012359362,0.016566802,0.030541863,-0.005543355,0.0060031638,0.03278367,0.001127772,0.0021423623,-0.015233047,0.04179829,0.019867014,-0.02696185,0.008041158,-0.005817212,0.012358479,-0.000077772886,-0.005953934,0.015775006,0.03413869,0.010658585,-0.039292365,0.03810283,0.019312855,-0.0045239627,0.037381206,-0.01660144,0.02526122,0.018934023,-0.0034774244,-0.009158745,0.039076988,-0.039479673,0.00050405785,-0.016604455,-0.031977534,-0.0063561685,-0.0063297898,0.02668402,-0.040171076,0.027462881,-0.02154426,-0.0424182,0.0038188398,-0.003475748,-0.017319594,0.02009559,0.03783429,-0.025484987,-0.046175655,-0.027813923,-0.004378196,-0.017223325,0.013155077,-0.006917756,-0.0038071722,0.01766197,0.0420401,-0.014676992,-0.023209726,0.024807531,0.017502297,0.002108682,0.033516463,-0.04206149,-0.019378537,-0.04140007,-0.040228378,-0.014692392,0.034455743,-0.01139807,0.0028365664,-0.041591056,0.0012902543,-0.037911814,-0.047469232,-0.00029259548,0.0148394,0.011784755,-0.019573048,0.035428856,-0.035550956,-0.0040807016,0.0220755,0.016662952,0.043038387,-0.040551048,-0.0055941828,-0.008697316,-0.021935675,0.020465095,0.04478175,0.016304623,0.001469627,-0.022779312,-0.02487688,-0.033836875,-0.037144635,-0.011611972,-0.00496538,-0.036445897,-0.03744171,-0.047103107,-0.02131058,-0.027880084,0.022600133,0.03101049,0.0008697659,-0.0047237016,-0.008294243,0.042316537,0.031114008,0.041738126,-0.039677255,-0.00520676,0.0013770089,-0.047394104,0.0063774884,0.030255254,-0.00040679052,-0.023972936,0.0019185022,0.0133028515,-0.026577443,0.043032933,-0.02956773,-0.024262764,-0.010331687,0.03391349,0.02209289,-0.036684554,-0.019930508,-0.0056617036,0.02754585,-0.041923817,-0.02362668,0.010561101,-0.028469853,0.012198079,0.02374148,0.0011079945,-0.001501631,0.01442359,0.037288863,-0.03763392,0.00012930483,0.038665008,-0.0072525367,-0.033052877,0.03229494,0.036620777,-0.0449052,-0.025042575,0.00090386346,-0.022806086,-0.011777919,0.018068355,0.022539962,-0.02991131,-0.02383811,0.03901195,-0.00035311654,0.011287764,0.0053635277,0.0050147437,0.011508923,-0.011498287,0.0019292645,0.0048057064,0.03988837,-0.013836939,0.016232032,0.014008533,-0.020378761,-0.028026953,-0.03908064,0.009515833,0.04002389,0.0027545989,-0.015716445,0.03934614,-0.03187691,-0.0013754889,0.0006815493,-0.03336127,-0.02448932,0.0013828501,0.03499869,0.03919809,0.0322665,-0.025835054,-0.016416749,0.000890065,0.017509598,-0.01699646,-0.034619782,-0.03168901,0.01226018,0.036249775,0.038012926,-0.026475629,0.0094772205,-0.021239862,0.0019329153,0.022833746,0.026093278,0.026093673,-0.047075834,0.0038117059,0.017679568,-0.033116996,-0.01596608,0.017804783,0.029414523,0.017598432,0.04343873,0.0067883283,-0.010823555,-0.027850553,0.03400172,-0.04685405,-0.020112567,-0.021134714,-0.038635448,0.03992011,-0.02617105,0.043475296,0.025007736,-0.017013334,-0.00058168545,-0.019926675,0.0337711,0.041986722,-0.032508504,0.038433213,-0.02259732,0.039411176,0.02956831,-0.009349752,-0.016387932,0.045592193,-0.040955152,-0.046812624,-0.01229164,-0.012101416,0.025876503,-0.023294223,0.032200146,0.041621376,0.045329947,-0.008766979,0.03719179,0.03691699,-0.01315587,0.044975597,-0.028740458,0.0035718232,-0.0070771463,-0.018414317,-0.044527903,0.015426535,-0.044872187,-0.04547871,0.027009685,-0.020058269,-0.009413179,-0.0010345653,-0.03633435,0.02691589,-0.03814775,-0.028156403,0.017079826,-0.041774258,-0.010353211,0.030250344,0.023021813,-0.0027651004,0.0031131245,-0.026256828,-0.041010607,-0.033289064,0.005949158,0.031610172,-0.020698346,-0.046606593,0.0012192205,-0.01865216,-0.019539706,-0.02579652,0.00011282414,0.032665487,-0.00004337728,0.010714732,-0.023232248,0.036736418,-0.0024205558,-0.01061124,0.019395005,-0.023776362,0.043536637,0.0050568953,0.03373689,-0.035396658,-0.014792755,-0.03174992,-0.027661474,-0.0016109273,0.0063810237,0.019950014,0.020806838,0.044795144,-0.038692523,-0.022480672,0.0032706782,-0.022829765,-0.0060153753,-0.041004278,0.007262673,-0.041116446,-0.026282072,0.028246198,-0.03833489,-0.032461803,0.03838518,0.00201061,-0.03327784,0.036740113,0.04377329,0.0025054142,-0.032303527,0.0038099699,-0.01775468,-0.020446984,-0.00599486,-0.025485793,-0.020601964,-0.0014636852,0.04580215,-0.019999096,0.0332901,-0.019673591,0.034922574,0.006495122,0.01147015,0.029629681,-0.016130324,0.023392338,-0.026662963,-0.019261163,-0.046688184,-0.021067645,-0.001806844,-0.020274475,-0.00031047687,0.024966177,-0.0055067576,-0.005748421,0.0051747337,0.018107858,0.02283888,0.033563126,-0.039616358,-0.013302013,-0.023936102,-0.022783259,-0.044480048,0.023464728,-0.035940614,-0.031430766,0.0017764978,-0.040874656,0.003983218,-0.00074741244,0.013014432,0.04722582,0.04252507,0.03719918,-0.0019549616,-0.0110342465,0.040593516,0.027786512,0.030876685,-0.013184819,-0.02513171,-0.011689667,-0.02160797,-0.034008116,0.0030859187,0.0118920915,-0.006627679,-0.03562145,0.036546584,0.006333817,-0.028040629,0.031124782,0.012204897,-0.015174475,-0.01747676,-0.047560308,-0.017797252,-0.04500852,0.021235403,-0.026982069,0.021738093,0.0414378,0.02836373,-0.035662364,0.025738988,0.008577824,-0.040352907,0.036425572,-0.0336283,-0.03184113,0.022254024,0.029280681,0.007957853,0.0026963651,0.022649739,0.011633996,-0.03059753,-0.023184787,-0.0240212,-0.020028252,0.03416914,0.0005683489,0.04125515,0.017746728,-0.012423087,-0.022937205,-0.0054284856,0.040085692,-0.01056141,-0.022406882,0.019556526,0.002369523,0.030329827,-0.0038674884,0.046019148,0.0305981,-0.0024576932,-0.009450965,-0.003947951,0.032267112,-0.014944296,-0.03179401,-0.010911826,0.026961144,0.003534831,-0.017540459,-0.0068768747,0.009311128,-0.03630811,-0.044253264,0.045783687,0.0047191195,-0.012239836,0.04046375,0.03223409,-0.02184891,-0.012523197,0.02961598,-0.011390131,-0.01798362,-0.034209564,-0.032520864,-0.030706467,0.01856858,-0.020162374,0.0021329522,0.012239404,-0.006317757,0.008183993,-0.012310248,-0.047012806,0.03576714,0.03919149,0.044968966,0.009053327,0.020890657,0.0069203526,0.016267177,-0.013387654,-0.033036016,0.012901593,0.0019114837,0.0030940287,-0.020088969,0.004214734,0.03791303,0.030829724,0.023260813,-0.004073601,0.00718699,0.04402246,0.005384147,-0.03403438,-0.04076428,-0.045896694,-0.036335915,-0.01966309,-0.0044396594,0.03923584,0.046185885,-0.0376423,-0.0436947,0.037804615,0.028644416,-0.04236109,0.0048256516,-0.035169896,-0.03173715,0.034098703,-0.047189623,-0.012280457,0.030739639,0.034623,-0.015656963,0.040327538,0.007089518,-0.0003304705,0.010974675,0.044821236,0.021835905,-0.01998754,-0.014194459,-0.019156015,0.0015040115,0.025129486,-0.026967146,0.00660982,0.029142965,0.012769364,-0.039988663,-0.007506121,-0.03229214,-0.021436755,0.030350562,0.026258629,-0.028049067,-0.014693402,0.021785188,-0.0058715567,0.04400974,-0.034016553,0.029953908,0.005950451,-0.00050612167,0.017472144,0.045863967,0.011096969,0.04011074,-0.035549197,0.018671189,0.016346816,-0.018796297,-0.044724785,-0.045779105,-0.026646245,-0.017715702,-0.015030995,0.028267462,-0.028444212,-0.04731514,-0.025196623,0.020422924,0.00788286,-0.027555112,0.015302282,-0.02872017,0.00082729384,-0.0027137734,0.04053082,-0.035460778,-0.03007214,-0.016268212,-0.038246006,0.015077796,0.02187043,-0.020768996,0.038111042,-0.018785512,0.0121869,-0.010934748,-0.0067780204,0.04027606,0.04279503,-0.025814222,-0.026674336,0.031207692,-0.0058757067,-0.0035988912,0.04545893,0.029503781,-0.012357254,0.023266148,-0.015051715,0.030781027,0.003721267,-0.032435246,0.014769487,-0.040859338,0.022776317,-0.011714593,0.044392694,0.034804437,0.024867456,0.04185983,0.033153366,-0.04081216,0.023073774,0.043518234,0.016916592,0.047352392,-0.032382865,-0.03401257,-0.0026218034,0.04097129,-0.04001689,-0.002713114,0.0048134625,-0.008774739,0.016909104,-0.0018743314,0.035871584,0.044918228,0.04152107,0.045703564,0.01808725,-0.021652618,0.016157042,-0.028106494,0.023461293,0.010266818,-0.025953472,-0.03578651,0.03644244,0.04143453,0.02196278,0.02538636,-0.040128365,-0.03746522,-0.024899902,-0.0020377375,0.0027644634,0.010307211,0.00405683,-0.042291414,-0.00007247552,-0.04305871,-0.022383826,0.015564915,0.00864464,-0.009184003,0.01916748,0.02850714,-0.036509506,-0.01279708,-0.026662191,-0.03969267,0.04118884,-0.02197209,0.016009402,0.027414221,-0.042430382,0.03069542,-0.016615262,-0.025190748,-0.023655314,0.007247422,0.021968435,-0.0011814237,0.01660179,-0.008299381,0.04121447,-0.030181099,-0.047237277,-0.044195946,0.02470776,0.008763012,0.04127259,-0.038268585,0.009503007,-0.03690016,-0.013491172,0.035595205,0.009307362,0.0041111037,0.030111957,-0.03260145,-0.022977598,-0.024656763,0.03276399,-0.018475136,0.0069795623,0.029297326,0.038719017,-0.0027961284,0.0061076656,-0.016476048,0.010066684,-0.02975056,-0.012287863,0.021306563,-0.026654253,-0.027802674,-0.023604803,0.031132195,-0.026354445,-0.02897195,-0.00448367,-0.0052874684,-0.008948315,0.010944579,0.007567562,-0.042318836,0.03806303,0.033123504,-0.0018758178,-0.034202784,0.015037347,0.01547436,-0.007827055,0.04005759,0.02822565,0.04046822,0.020834897,0.027450722,0.02766687,-0.014000323,0.038731907,0.017212506,-0.010840759,0.033519004,0.021077681,0.040273096,0.030937526,-0.02042748,-0.04439639,0.0057060793,-0.006692942,-0.005307041,0.009409606,-0.010986369,-0.019917717,-0.020869246,0.029147122,-0.018283041,-0.024394413,0.005450543,-0.026586585,0.040517207,-0.0124440305,-0.029022392,-0.019024828,-0.0017938167,-0.0030897409,-0.030630384,0.022661168,-0.03330907,-0.046043698,0.005528543,0.015591811,0.037136856,0.019750107,0.02026971,0.018089708,-0.018260712,0.009334207,-0.0042165816,0.01835655,-0.015253652,0.015723739,0.042629424,0.024832089,0.014419679,0.046327252,-0.042152394,-0.036023807,-0.025822388,0.021622647,-0.018590458,-0.039356515,0.015715335,0.040621843,-0.0041127503,0.039428156,0.021790486,0.037170526,-0.034372598,-0.047162123,0.036183063,-0.045799505,0.040030163,-0.014066085,0.02268378,-0.023817027,0.039983537,0.019246485,0.037181076,-0.03516028,-0.0453766,0.023176972,-0.0385238,-0.037937045,0.023662347,-0.0002034679,-0.0051569305,0.0028038062,0.0011570044,0.03559768,-0.0015010871,-0.029946908,0.000042755157,-0.023941988,0.038229983,-0.025672138,0.023574952,-0.026168928,-0.0074232444,-0.020993752,-0.037907913,-0.015359141,-0.02861492,-0.041851964,0.02523211,-0.01358889,0.03425258,-0.00603877,-0.04251549,0.01126796,-0.034125,-0.042804603,-0.047287423,0.0025859214,0.018622007,0.0040824264,0.004048381,0.04440907,-0.037229724,-0.027412541,-0.02660101,0.03214902,-0.047204345,0.04336903,-0.044474024,-0.020677695,0.0262576,0.014807761,-0.026129236,0.022937287,-0.007334199,0.030502643,0.019379113,0.0006815009,0.012730796,-0.029865768,-0.013134651,0.0026796274,0.011302754,0.04300652,-0.041514188,-0.027549056,-0.017442103,0.045530874,-0.0029593706,-0.01380682,-0.027562212,0.02823292,-0.033827372,0.037238095,-0.018523639,0.0014660433,-0.033882223,-0.030381393,-0.011727579,-0.0041376427,0.011379983,-0.03957922,-0.016364945,0.0048954524,-0.0008625537,-0.04744223,0.03799968,0.026525278,0.009817377,0.025267635,0.047359105,0.032280456,-0.013101909,-0.036180157,0.044722203,-0.04049626,-0.00051332265,-0.032987136,-0.037977748,-0.0152357705,0.04419579,-0.0064564496,-0.026076129,0.011300009,-0.03959938,0.013932802,0.0023586936,-0.036438536,-0.0083967745,0.013996184,0.029840056,-0.036703188,-0.023523413,0.03674322,0.027451914,0.04042096,0.029009487,0.036880907,0.0039477907,0.024054337,-0.029371541,0.03766488,-0.04064694,0.047241572,0.004480291,0.022803072,0.01728234,-0.010283738,-0.026648048,0.021721955,0.018090818,-0.042222805,-0.011668585,0.04640742,0.022003774,0.046339583,-0.0002603419,0.042134967,0.0030250102,0.0005287938,0.042226244,0.02148028,-0.026954705,-0.041244525,-0.03130269,-0.024792144,-0.046064302,-0.040354837,0.012897193,-0.011778858,-0.019256955,-0.018200109,0.038029302,-0.00056954846,0.036597747,0.033606213,-0.04395978,0.04634575,-0.008312784,-0.034156855,0.025883798,-0.03053822,-0.040583413,-0.01786669,0.033374105,0.037144843,-0.020153087,-0.0037081465,0.002153024,0.003223706,-0.014190104,-0.030249538,-0.01111633,-0.018127099,0.037762526,-0.013174094,-0.03950396,-0.01730036,0.02001978,-0.0027100071,0.02753063,0.042631086,0.046382945,0.003716424,0.0392502,-0.04737361,-0.032129087,0.029795472,0.016138148,-0.025440793,-0.018101934,-0.015030768,-0.022109423,-0.042161625,-0.009416275,0.04243699,-0.0066286325,0.019015815,0.018886771,-0.038657673,0.041525576,-0.0056211613,-0.031391576,0.038927715,-0.003436882,-0.0056899413,-0.036776774,-0.011409309,0.019991565,0.027710076,0.023506071,-0.011985108,-0.04390494,-0.019803302,0.036088023,-0.0118669495,-0.029464578,0.0028315187,0.033477675,-0.008224253,0.024675723,-0.030428013,-0.044435784,-0.033565804,0.03268638,-0.0239613,-0.0334892,-0.032629654,0.004341338,-0.044220883,0.0035764948,-0.04652902,0.017658908,0.0038138963,0.027964171,0.04511862,0.03626274,0.03771871,-0.029607331,0.045763943,-0.028002117,0.019242112,-0.035340864,-0.023977518,-0.006014321,0.03974997,0.03644446,-0.004350297,-0.02830223,-0.031387992,0.046133433,-0.01941394,-0.047330607,-0.020228704,0.040292498,-0.016015954,0.029471617,0.018727582,0.04662924,0.02872442,-0.01638012,0.0175622,0.013793234,0.020998005,0.027511846,-0.0066782683,0.035048906,-0.0058439076,0.036960233,-0.0070758536,-0.015203644,0.04067028,-0.034519386,0.031573784,-0.021118509,0.014245752,-0.020769643,0.007337328,-0.011833429,-0.017480604,0.047224123,-0.037406497,0.030889194,0.0004574731,-0.024307353,0.008362424,0.001255624,0.0032725818,-0.038432248,-0.03048542,-0.02865968,0.041616943,0.01927096,-0.037438113,0.031209502,0.002250459,-0.0068228804,-0.0021275282,0.013964985,-0.026274586,-0.005629007,0.03520139,-0.016661951,-0.037994802,0.023122009,0.003131248,-0.00833752,-0.031239567,0.04237506,-0.04755456,-0.04592983,0.0045688823,0.019332413,-0.030107828,-0.030883217,0.038110282,0.026985992,0.03959616,0.037595678,0.043097686,0.029945139,-0.003886044,-0.014629863,0.00087795407,0.0332505,0.04146385,0.0271242,-0.012639869,-0.0020450056,-0.004092768,0.03339413,-0.00032950565,-0.021565264,-0.006754115,0.002604112,0.040081013,0.034283686,-0.021598479,0.012630127,0.038378846,0.019641075,-0.039410233,0.045562085,-0.0446479,0.038277555,0.03734834,0.045518514,0.021291826,0.042651463,-0.027534574,0.042154018,0.013153274,-0.03435393,0.0262306,-0.024880191,0.027124468,-0.009771254,-0.0197702,0.025304813,0.015566442,-0.016599942,0.045081507,0.004273545,0.008476406,-0.01803387,-0.029302647,0.04623003,0.04305439,-0.045391317,0.044692304,0.0066225864,-0.035372343,0.024540175,-0.035804257,0.0029825196,-0.02949379,-0.0061562136,0.027760621,0.004872989,-0.032312904,0.0018985793,-0.042487048,-0.025751067,-0.013167266,-0.013650335,0.0034972243,-0.043572824,-0.030473534,-0.00477672,0.037958767,0.04633111,0.03080162,-0.0065876916,-0.03161911,-0.042577513,0.020236675,0.0029699877,0.0035987012,0.0008099675,-0.026507054,-0.031241167,0.0021055415,0.029011603,0.030627321,-0.020894455,-0.04660286,-0.011108153,0.0390975,0.011070162,0.006900497,-0.029044902,0.015007112,-0.0258829,-0.019158214,0.043304604,-0.022116305,0.03847861,0.031819116,-0.04635149,0.0087708235,-0.030250842,0.04273011,-0.006668333,-0.02092209,-0.033373088,-0.03390332,-0.022745993,0.04405037,-0.022320377,-0.0072475,0.04209097,-0.02061446,0.013719216,-0.043447345,0.0019764304,0.033012327,0.02316146,-0.045673605,0.0025745593,-0.040762864,0.016059708,0.047502544,-0.025081098,-0.045424625,-0.0035392195,0.008735124,-0.00006777048,0.036467712,0.0057954974,-0.040044006,0.0082919635,-0.03979929,0.013937373,0.0042096637,0.042190965,-0.029211165,0.02355307,-0.022477577,-0.027221171,-0.022674186,0.046928193,-0.03580989,0.00018937513,-0.03737726,0.00842442,-0.008121803,0.03642646,0.033896092,0.0198025,-0.044794403,-0.004487753,-0.017973458,0.019294072,0.027702954,-0.047293402,-0.033080515,-0.003815323,-0.035395954,0.036093812,0.02902243,0.040340785,0.004245274,0.009421162,-0.019894809,-0.013662092,-0.024590014,-0.02100676,0.030945536,-0.021341313,-0.031667635,0.03700721,-0.019415177,-0.042268362,0.035463046,0.019164134,0.010487583,0.047352623,-0.047110002,0.0137886405,0.017172564,-0.027984494,0.015338514,-0.03814197,-0.042659592,0.0059550554,-0.021556418,0.04162218,-0.04048042,0.0074854568,-0.04068473,-0.012896005,0.0067519136,0.0076665506,0.033432815,-0.03192734,0.030135315,-0.02050159,0.039197374,-0.04502592,-0.039541624,-0.036817633,0.025624897,0.016936254,-0.009117048,0.03924014,-0.044720475,-0.026671931,0.0012182444,-0.04550691,0.012486819,-0.034483653,-0.027777499,-0.01978314,0.00088972226,0.024985623,-0.032295577,-0.014518112,0.01502857,0.045292024,0.019266326,-0.032765105,-0.030262114,0.011773404,0.00021689758,0.011120185,0.00013776496,-0.018939616,0.032387543,-0.014765404,0.0005386248,0.03150172,0.034955416,0.046050098,0.003423866,0.040447313,-0.029318275,0.009299163,0.008943655,0.042887557,0.0022640452,-0.046879712,-0.023025637,0.03315367,-0.03486272,-0.017746164,0.028655145,0.034665022,0.044494923,-0.021947708,-0.025023863,-0.047247585,-0.025830291,0.028481591,0.023854885,0.016482163,-0.04468463,0.0070475563,0.0045153573,0.025508132,-0.027514616,-0.006679777,0.033518415,-0.040891215,0.030741964,0.023218807,-0.041908156,-0.04329606,-0.018616108,0.04427473,0.023749124,-0.025608167,0.02892482,0.0080740005,0.044802364,0.00773897,0.036225248,0.012659181,0.0025497898,-0.032730423,-0.033363786,-0.036422625,-0.037950143,-0.04411349,-0.033138156,-0.013976745,-0.047153518,0.03635015,-0.010101657,0.039654735,-0.004404526,0.035021473,0.037492473,-0.020217478,0.025195453,-0.010680314,-0.040769417,0.006987784,0.042334642,-0.028768277,-0.012677543,0.000043466687,-0.010897528,0.00077790767,0.045382027,-0.02147124,-0.014952451,-0.034610868,-0.0054622926,0.03334756,-0.0015070736,0.034594666,-0.028089847,-0.030561263,0.008797441,0.03422041,-0.03362607,-0.046269417,-0.017162925,-0.04621978,0.032656293,-0.01508341,-0.0013339035,0.02670164,-0.011485711,0.003432516,-0.029183256,-0.03006749,-0.029496364,-0.031405013,-0.023718683,0.0053446256,0.028719645,0.0050190426,0.04114371,0.027204197,0.04249965,0.024244573,-0.0010117255,-0.021116965,-0.0010133795,-0.024918057,0.0016444512,0.03183538,-0.030711208,0.012273073,0.011585642,0.04552738,0.010247301,0.040802,0.046663646,-0.04048569,0.020527322,0.028735328,0.0019609183,0.0053960867,0.015260648,-0.0060376152,-0.016040929,-0.008055653,0.028004874,0.040410552,-0.016834926,-0.027078792,0.032892022,-0.018249644,0.0019344725,0.038962405,-0.021295952,-0.03944987,0.031207178,0.0027030334,0.016350184,-0.0005677454,0.021884222,-0.006886672,-0.001409091,-0.030679692,-0.0008381121,0.0060610324,0.001035098,0.017163541,0.029620323,0.026860628,0.035447363,0.031485643,-0.041042846,-0.0009112917,0.023364749,-0.03380764,0.045481596,0.030317117,0.02103484,0.046970095,-0.00013457611,-0.024841465,0.0022411048,0.014487028,0.0046243705,0.008769102,0.02808084,0.043243174,0.046718474,0.015989956,-0.013265971,0.0048569404,-0.034929592,-0.0380044,-0.0126059055,0.025059272,0.00077366456,0.011913188,-0.00580905,-0.035686065,-0.016609093,-0.0087671615,0.024152111,-0.040299572,0.0047901124,0.0037597232,0.028659064,-0.0431215,0.033956688,-0.030223954,0.02199449,-0.0062428415,-0.0029106662,0.007683914,-0.024767933,-0.009899061,0.046786096,-0.0012716576,0.006016545,0.0474297,-0.024062559,-0.032611065,-0.022630254,0.012360543,0.012770046,-0.0116383955,0.018615928,-0.036333457,0.03757065,-0.009068329,-0.015806783,0.04175048,0.024174351,0.004762985,-0.010854036,-0.017322134,-0.030849582,-0.002754271,-0.03100176,-0.007051494,0.03258514,0.03065234,0.017846573,0.008477367,0.029473085,-0.009239126,-0.043823663,0.029986676,0.01860537,0.036299545,-0.04512231,0.017676067,0.008356538,0.0099074505,0.04577939,0.0010035262,-0.0040821396,0.04605997,0.0039554127,0.044099282,-0.0032399446,0.018274989,-0.021152778,0.0008564517,0.017884504,0.023970407,0.0334183,0.017537724,-0.0067084804,-0.035575166,-0.010925278,0.019612309,0.0067300946,-0.0037172176,0.046230588,-0.006542988,-0.036912225,-0.032752164,0.015582051,-0.0030547231,-0.021136176,-0.045128696,-0.0070996433,0.0063722134,0.0041065477,0.0348464,-0.046392143,-0.038410407,-0.015308961,0.031643648,-0.024584219,-0.041270904,-0.010926038,0.03714144,-0.04245239,-0.0062678494,0.0321561,0.041538965,0.0043742023,-0.029217096,-0.011614695,0.04373828,0.02237456,-0.037846632,0.046811502,0.01797716,-0.005766101,0.024763461,-0.026273645,0.030327845,-0.028958308,-0.03357838,0.042881902,0.012470841,0.016265843,0.023091432,-0.0023431443,-0.023042342,-0.032518134,-0.006285526,0.026330408,-0.011999261,0.023103412,-0.008113965,-0.0095094815,-0.000973925,0.020637054,0.040015306,-0.012658499,-0.0030316114,0.034639258,-0.022292672,0.03382768,-0.03492221,0.01548164,0.021960814,0.04753122,-0.0019520149,-0.016813936,0.027066682,0.0033578277,-0.039594177,0.04149927,0.011194862,-0.042158052,-0.010994885,-0.032547344,-0.034163445,0.017762791,0.018367913,0.036234137,0.028271567,-0.027515965,0.028723825,-0.0015001334,0.044208083,-0.010917522,-0.020179283,0.01073334,-0.039864022,0.024670508,0.013903905,0.0057115555,0.021898117,0.02986383,-0.046314225,0.009825289,0.029307391,0.02410015,0.042531956,-0.015697222,0.014956344,-0.003230203,0.022000466,0.029965725,0.025959138,0.04182818,-0.042182107,-0.022289654,0.0053904727,0.041842956,0.0066571087,-0.014475271,-0.033898976,0.037724074,0.01273945,0.007305961,0.035730477,0.026518892,0.025766727,0.040846463,0.026814353,-0.010284897,0.029377077,0.039743904,-0.016243976,0.03572579,0.008608304,-0.010686267,-0.015972488,0.034059476,0.020048108,-0.0004203543,0.012695845,-0.0062478445,0.040466774,-0.005818721,0.008033447,-0.0016984306,0.0017459467,0.031576376,-0.039904576,0.018645551,-0.029644663,-0.03352348,-0.00048045814,-0.0042336024,-0.0131047,-0.001469288,-0.0061893836,-0.006639462,0.0019804798,-0.02855453,-0.04269417,-0.04039321,-0.0359791,0.046273794,-0.041410197,-0.044757377,0.040208627,0.018227551,-0.0014918186,-0.0057764687,-0.044706255,-0.028873662,0.03750362,-0.008676916,0.0045675784,0.0051142685,0.00031604618,0.03469893,-0.009824827,-0.023582837,-0.009076145,0.03206232,-0.04642698,-0.008364871,0.039845284,0.040845457,0.044493664,0.023940954,0.018131543,-0.033162527,0.012690935,-0.047480438,-0.037489124,0.04218669,-0.0022487007,-0.017471362,-0.029593995,0.014355674,0.0009557009,-0.044510983,-0.03914715,0.018897865,-0.0063044317,-0.012207016,0.006057959,0.031683546,0.0380149,-0.004595045,0.02504145,0.035883863,0.015579622,-0.024184763,-0.016204875,0.022145461,-0.019843007,0.035921823,0.02734493,0.009414449,-0.0048118867,-0.009553529,-0.019524273,0.03095347,-0.028261337,0.004016809,0.019962978,0.034781862,0.023457278,-0.039598238,0.029144559,0.012457754,-0.016765058,0.012463186,0.017186012,-0.013648078,-0.035754878,0.004888173,0.015278626,0.022443373,0.040710848,-0.027662143,0.015242513,0.017443012,-0.0038067512,0.010857586,-0.0034227632,0.012410872,-0.0111093335,0.030344028,-0.034054022,0.0031332113,0.017123494,0.042412613,-0.03351075,-0.032287467,0.045325022,0.0117032975,-0.04655676,-0.04079988,0.039812196,0.04501273,-0.019659983,-0.03424768,-0.04072077,-0.021956202,0.018733773,0.040965196,-0.0411674,0.042314027,-0.019277481,-0.0370824,0.025207024,0.039774533,-0.020211684,-0.036878113,0.0004068017,-0.0115521625,-0.033842385,0.027973596,0.00476354,-0.03878893,0.03678326,-0.0263412,-0.024187315,0.02364986,0.007198397,-0.006012041,0.047233034,-0.035592303,-0.029860573,-0.03226405,-0.037491582,-0.032344136,0.026511978,-0.0019148178,0.035557147,0.037493195,-0.014947303,-0.035181146,0.023969498,0.03492536,0.03024074,0.029004369,0.024717096,-0.0014171898,0.0440743,0.025052499,0.0026091672,-0.019518057,-0.024226405,-0.019939218,-0.00019477308,-0.0009337589,0.047447916,0.035207886,-0.02380063,0.039081093,-0.030597508,-0.017776,-0.03285194,-0.01231017,-0.022197967,0.0108901,-0.031196475,0.014496747,-0.007462267,0.01190526,0.03497054,-0.013322357,-0.030233039,-0.037376456,0.013660494,-0.022911552,-0.044058025,-0.04409799,-0.03824115,-0.0470614,0.033550616,0.039594162,-0.01992468,0.0077769384,-0.04061105,0.03290568,-0.023728505,0.010874074,-0.031157056,-0.021205874,-0.01725612,-0.03549464,-0.027680026,0.042430487,-0.02043687,-0.02078959,-0.008084912,-0.028915962,-0.0367999,0.023853455,-0.004029624,0.038052868,-0.025175655,-0.023795549,0.038064767,-0.026617985,-0.01282974,0.034235854,0.01889791,0.03942002,-0.036140077,-0.038280003,-0.037550554,0.013297226,0.046686713,0.038832363,0.04260956,-0.014203563,0.042486575,0.041305844,0.008369058,0.0039886385,-0.011401437,0.035081033,-0.04465738,-0.027423779,-0.013929412,-0.031886935,-0.015257329,0.012048874,0.0059718415,-0.029139154,0.0033110157,-0.038799543,-0.014711376,0.01582412,0.034702864,0.011305179,0.024807934,0.03363007,0.0013250709,0.0148771405,0.0082435645,-0.029019138,-0.034224525,-0.028929956,-0.04677171,0.030946534,0.03107908,-0.044248804,-0.0068430007,0.0057395324,0.009905536,0.02818827,0.043667417,-0.006327398,0.044888835,0.0076511987,0.03422899,0.018680196,0.043513592,-0.047200385,-0.0388265,0.01763219,-0.0159477,0.0044143237,-0.02877957,-0.040237438,0.029564206,-0.024680736,0.0383329,-0.0051649697,-0.035901897,-0.033517517,-0.024001695,0.046151888,0.039253566,-0.016213164,-0.014245231,-0.025317479,-0.046251442,-0.03547178,0.027512249,0.02208786,-0.04414123,0.029121425,0.029927325,0.027815226,-0.021088704,0.027271297,0.024940912,0.032644194,-0.025677128,-0.016351258,0.041863415,0.04366922,0.004157327,-0.044819567,0.04157081,-0.02210967,-0.008660007,0.020398427,-0.038529597,0.008506753,-0.028239666,0.0317748,0.01893768,-0.029776983,-0.045657374,-0.039233595,-0.021262554,-0.018412402,-0.01792347,-0.023299735,-0.023948235,0.021819923,-0.016120493,0.041347664,0.028528687,-0.0021200217,0.03652605,-0.0062881596,0.012557935,-0.04017491,0.040985625,0.040699694,0.021847773,0.027918924,0.026378375,0.020177182,0.0026281513,-0.04209737,0.040318195,0.040468965,0.001881659,0.03795409,0.036365632,-0.016125198,0.032962356,-0.0059050582,0.022179905,0.03764298,-0.013494551,0.003171485,0.02517021,-0.040863384,-0.011701334,-0.037161816,0.021665629,0.010857325,-0.006548036,0.002204258,0.005596213,0.027288053,-0.0069335513,0.009790171,-0.01618589,0.038717974,0.024052713,0.019541297,-0.018310178,0.015896302,-0.04026107,-0.034717143,0.036000986,0.008830067,0.004853949,0.04314408,0.043143798,0.018121917,-0.010753844,0.017585773,-0.031874314,-0.01722218,0.04159959,-0.029551411,-0.042163517,-0.041694842,0.025798213,0.031321365,-0.033773087,-0.029344108,0.035803113,-0.035525925,-0.028426567,0.03351781,-0.014247667,0.018548097,-0.034765325,-0.006420035,0.033910114,0.02634586,0.027980607,-0.022972189,0.022667859,0.03425781,0.04554845,0.030030202,-0.006919764,0.04033759,0.041089658,0.018775646,0.01463975,-0.036006898,0.022168074,-0.02441815,-0.031575255,-0.015470937,-0.010610241,-0.00080091506,-0.0133508,-0.02872355,-0.0115834735,-0.022180414,-0.0043375157,0.046584282,-0.020757588,-0.0077812485,0.0396281,-0.046903607,-0.018320238,0.035586756,-0.006276116,-0.04162958,0.019187901,-0.0029688291,-0.0045398735,-0.032896593,-0.04051248,0.023362752,0.046102036,0.00054279715,0.0033169016,-0.032943737,-0.022484982,-0.014985532,-0.016003039,0.0035141557,0.0459332,0.021882456,0.02610093,-0.029392032,0.034982096,0.0014532171,-0.010195408,-0.014387529,-0.038950484,-0.011777714,0.02450176,-0.012887284,0.044159446,0.03889266,-0.009792279,0.031570155,0.03907584,-0.0031612776,0.034209546,0.022052031,-0.026820548,0.04024638,-0.0375967,0.023269255,0.029556591,0.009089377,0.002587542,-0.009411331,0.006156519,0.03823578,-0.047091417,0.0075122304,0.020063851,-0.045267414,0.016760658,0.039605167,0.039112207,-0.0065237544,0.04107872,-0.022101756,-0.033084925,0.0138322,-0.018421087,-0.016668165,0.008636802,-0.034591317,0.030834172,0.021546576,-0.013821311,-0.016416408,0.041813012,0.033688057,0.03599796,0.027263742,-0.03004422,-0.03655634,0.043076683,-0.03315197,0.018647756,-0.008711379,0.014074773,-0.027131537,0.016371418,0.0020507202,0.041289333,-0.011641469,-0.03728148,0.01435218,-0.02192843,-0.037965592,-0.031182118,-0.038888577,0.037573386,-0.008658621,-0.0024970472,-0.03287422,0.039515976,-0.010005545,-0.042770877,-0.046593584,-0.032837115,0.025432948,-0.040795863,0.012554247,0.04205152,-0.035890147,0.03973865,0.036099557,-0.037059233,-0.0076754317,-0.021339793,-0.043343034,0.009875733,-0.014515858,0.0023651011,-0.0007897578,-0.0019127987,-0.038285993,-0.047137573,0.029939163,-0.021528361,0.010263018,0.039335754,0.032008674,-0.0370846,-0.026221966,-0.012142908,-0.0026435517,0.0066074245,-0.03621038,-0.02358143,0.027653199,-0.032614592,0.039238874,-0.011020206,0.03806443,0.037516963,0.0025496557,-0.034662787,-0.02909632,-0.006653648,0.03688741,-0.032857187,-0.019208305,-0.024583662,0.02124003,-0.030707283,-0.0021692067,0.007961936,-0.014095355,0.010860104,0.012365237,-0.020430587,-0.03429997,0.028499346,-0.020357192,0.030823927,0.043939676,-0.016098354,0.032915536,0.004667919,0.038096424,0.026751805,0.022972379,-0.044933833,-0.03989752,-0.042155694,-0.011715364,0.021759968,0.041474257,-0.012749203,0.015475076,-0.022946447,0.017106805,0.024766337,0.03703424,0.0076193996,-0.01359497,-0.018065441,0.03108992,0.008872084,0.01597784,0.018817786,-0.018293021,0.0048369355,-0.01372518,-0.02316112,-0.0023064576,-0.035934057,-0.038888995,-0.01713209,0.009486247,-0.036350034,-0.025068568,0.0032338575,-0.01837644,0.03386044,0.046901975,0.020949323,-0.04396194,0.04077748,0.031039264,0.030010257,-0.014813703,0.010770072,-0.0012862192,-0.000673893,0.025612792,-0.016561905,0.01655915,-0.0032268907,-0.03004447,0.0023417075,-0.041681234,0.0042529977,0.029221658,-0.012389946,0.024782721,0.041163336,0.04414766,0.04421599,-0.045480546,0.029471716,-0.022852343,-0.00032162562,0.00941674,-0.03625033,-0.0067383386,0.022778552,0.043025855,0.022828985,-0.018012242,-0.011767495,-0.025086043,-0.025215652,0.04190327,0.016944308,0.029265624,0.00021543354,-0.020399183,-0.009253155,0.035997067,0.021923918,0.02428634,-0.036236577,0.047278974,-0.0247355,0.040563133,0.01186128,0.03932121,0.005080868,-0.037846617,0.019825352,-0.002369023,0.018604416,0.014016945,0.01658517,-0.045449674,0.010292186,0.04687911,-0.011502332,-0.032589372,-0.0026937798,-0.0008613722,0.03176811,-0.01256983,0.031222006,0.03803176,0.039218422,0.030107092,-0.014409303,-0.013701048,0.025218021,0.0120933615,0.042874526,0.038271975,0.0450421,-0.030408064,0.029182848,0.0003244616,0.0018546139,-0.012496444,0.010639588,-0.040763397,0.0135431,0.03940184,-0.0341041,-0.021219596,0.003201705,-0.028327905,-0.03602724,0.0059718066,-0.026002906,0.026136708,0.012959927,0.045048874,-0.0076055815,-0.004714643,0.029003557,0.031083751,-0.029673865,0.034675915,-0.037593693,0.03296193,0.025155699,0.01779495,0.034711994,-0.025220172,0.045827664,0.041237015,0.02256964,-0.025686154,-0.028579317,0.032715406,0.034847602,-0.04558347,0.011222638,0.036109548,-0.007362947,0.0352373,0.015604752,-0.0047741914,-0.046098866,-0.008810009,0.007917304,0.031213451,0.008662521,-0.036852587,-0.015699785,-0.0038883458,0.030967517,0.01084087,0.034975577,0.045040403,-0.027042137,-0.035560027,-0.0070599653,0.028272394,-0.025482152,-0.04131922,-0.020804651,-0.015763842,0.019504678,-0.041320097,0.038162585,-0.022086458,-0.02599298,-0.031351432,0.021342631,-0.025535926,-0.030796656,-0.045190252,0.014382813,0.015020996,-0.011401486,-0.041293584,-0.027544402,-0.024241114,-0.025963407,0.0071077645,0.0046892744,-0.00884565,0.043122794,0.009687054,-0.04474691,0.016864154,-0.033691667,0.037346322,0.019932244,-0.012051314,0.017897299,-0.016083885,0.00808201,0.01760501,0.041092906,0.044886168,0.017776819,-0.007603269,-0.0130198635,0.0039770156,0.0049881507,-0.046740625,-0.012308369,0.014233146,0.04667484,0.042951416,0.007466372,0.0026018983,0.004175031,0.013199413,-0.0060025603,-0.038573153,-0.015695866,-0.038050417,-0.02082546,-0.00405264,-0.03662551,-0.0024646106,0.00937352,0.026677893,0.015451535,0.017854271,-0.021884354,-0.045611344,0.045683023,-0.035659384,-0.0107585415,0.045340367,0.012636702,-0.02465159,-0.01931578,0.03943726,0.026670033,0.013321314,0.0076671536,-0.014506145,-0.020418571,-0.003511583,0.013614338,-0.029526938,0.021746343,0.024816709,-0.014878851,0.013779499,0.046474114,-0.040243912,0.015858328,0.013101092,-0.03124162,0.017359091,0.007935663,-0.025729781,0.032658502,-0.039062627,-0.016565833,-0.035519652,0.029354405,-0.029308375,-0.040894393,-0.020998355,-0.038538486,-0.004789501,-0.011033554,-0.009796519,-0.022834627,-0.03355248,0.044295665,0.027189737,-0.025367303,-0.038593248,-0.005034337,-0.023210168,-0.01782984,-0.015620328,0.040125195,0.0032093488,0.011855305,-0.022096472,0.023409078,0.0014816258,0.029715829,0.036085296,0.0036415905,-0.021954358,0.015902203,0.013898378,0.02430932,0.00043818355,-0.0037596952,0.0025763458,0.009044584,-0.024079943,0.019808535,0.025482405,0.0062020933,0.03239173,-0.04692946,-0.025336528,0.039627373,-0.0020937123,-0.037149422,-0.04409552,0.04406813,0.01079594,0.014261036,-0.025139647,0.017720599,0.017716166,-0.011481923,0.028694058,0.029926699,0.0015553946,-0.015536886,-0.03725678,0.045397304,0.0027078276,-0.0045493795,-0.014042911,0.011114894,-0.029334165,-0.034639817,-0.04264486,-0.0067305635,-0.017516743,-0.045426972,0.030134406,0.023763103,0.0152270775,0.03280505,0.035127133,0.024849184,-0.0074960254,0.034011632,-0.0434599,-0.021737523,-0.013911146,0.0070219133,0.018518096,0.018769385,-0.0069228597,0.016566018,-0.008697827,0.002536981,0.033381265,-0.0165075,0.044413265,0.027169045,0.0071826456,-0.04492551,-0.00982732,-0.00378047,-0.02032492,-0.005874451,0.02121022,0.04484705,-0.013074365,-0.040670957,-0.004266071,0.014519717,-0.04614989,-0.0009338036,0.027341675,-0.034456685,0.022108193,-0.025511744,0.02205028,-0.046056345,0.04672743,0.039067872,0.030545263,0.04530293,0.02275901,0.012073942,-0.0019556978,-0.038234416,0.04523277,-0.036050674,-0.014818225,-0.040102184,0.04295272,-0.034075957,0.00024392083,-0.031797085,-0.013414483,-0.0402942,-0.016052993,0.019381467,-0.0027186945,-0.044169825,0.008662019,0.0039266115,0.0020463094,-0.042499352,-0.017986557,-0.0032103823,-0.03213095,0.0084169,-0.019454349,-0.008788266,0.017714424,-0.021531701,0.0022360792,0.03790121,-0.00788551,-0.039615843,0.0261121,-0.0010504188,-0.03037678,-0.03532131,-0.0056345393,-0.0012446903,0.028809091,-0.025790222,-0.040868986,-0.0147228995,0.02941095,-0.033910044,-0.0111180255,0.010004368,0.047150116,0.010384393,0.025600443,-0.032542836,0.016181951,0.04386954,0.028461186,0.04494581,-0.04337303,0.0012699824,-0.008089043,-0.012704301,0.0027196952,0.03675676,0.03250725,-0.017329568,-0.023469511,0.041194156,-0.03244567,0.026728746,0.029432151,-0.025511105,0.01312254,-0.042263802,-0.0046508648,-0.02101512,0.017179217,-0.022068528,0.017768037,0.014378183,-0.014944168,0.040998142,0.014433815,-0.019869758,0.0054209344,-0.00255152,0.03558031,0.028510002,-0.039157066,0.037374176,-0.026571866,-0.019845093,-0.035178933,-0.028053774,0.018104587,0.008136146,0.010842106,-0.03566015,0.041980974,0.036873072,0.04135499,-0.027345134,0.01857121,-0.039223,-0.030316139,-0.03443355,0.033322714,0.045917578,0.008927744,0.041086327,0.019616548,-0.036443602,0.044154603,0.022848327,-0.03839674,-0.031868223,0.021093909,-0.009545893,-0.04275839,-0.03382806,-0.022398222,0.022136882,0.019402783,-0.02622165,-0.04069887,0.006189277,-0.0032325387,0.019241713,0.019821044,-0.04688078,-0.028279576,-0.02584367,0.014999826,-0.024934538,-0.031251643,-0.032436628,0.0045430018,-0.039243653,0.013194223,-0.027798759,0.0012666166,0.025892083,-0.028805945,0.037785515,0.0015414692,0.032192383,0.029280083,0.0009081556,0.013237437,0.0022679297,0.023000197,0.031845566,0.033137377,-0.020351183,0.03746119,-0.024792304,-0.008590265,0.04206649,0.009275684,-0.010388659,-0.027160686,0.046034608,-0.018730622,0.024603639,0.00028058703,-0.011452011,-0.038623594,-0.016390206,-0.013811484,0.02960014,-0.0015189126,-0.0040890435,-0.011306848,0.022409368,-0.0102256,0.0006731757,0.005108519,-0.03495023,-0.038244683,-0.023167852,0.04458142,-0.04369172,0.04315282,0.03535703,0.019393597,0.047096863,-0.0138425715,0.03421156,-0.04444577,0.02674572,0.04609104,0.03598256,-0.036861505,-0.013352819,-0.017650904,0.04608481,-0.014826155,0.040139798,0.0081759915,0.014384786,0.025873698,-0.04490379,0.011157338,-0.037209705,0.043529768,-0.024943415,-0.00392627,-0.00029214527,0.030570548,0.020512637,0.01884811,0.029072646,-0.039429776,0.01453457,-0.047150616,-0.044866167,0.034259334,-0.03588947,-0.028115408,-0.045648966,-0.037913557,-0.025367297,-0.044513036,-0.025549673,-0.017773708,-0.008967829,-0.041386247,-0.008366899,0.037861444,-0.017827695,0.040831596,-0.03117828,0.047128957,0.005840622,-0.03959661,-0.04030806,-0.043608468,0.038184058,-0.0044878027,0.04631146,0.03725376,-0.03234823,0.004620486,-0.008058707,0.042073827,-0.035097193,-0.013321096,0.036336347,-0.03825526,-0.0005558245,-0.042253,0.0068207015,0.028232561,-0.008476362,-0.043252118,0.038175948,-0.0056429296,-0.011428435,0.0009588188,0.02555667,-0.0084487125,0.03447232,-0.015874688,0.008352716,0.04309995,-0.03492442,0.018098606,-0.04310821,0.019623656,0.036253314,-0.008028403,-0.028611252,-0.019490423,-0.017836094,0.04316049,0.008069515,-0.010816,0.023056354,-0.045848668,0.03941935,0.036124993,0.028302783,-0.01931279,-0.010514131,0.046921495,0.027230205,-0.034247674,-0.01322281,0.03839417,0.0025720682,0.04568876,0.0017653629,-0.012480987,0.023825524,-0.031163735,-0.025898622,0.014645957,-0.037189715,0.0040248185,0.045111723,-0.010614796,0.022182573,-0.01977036,-0.01130196,0.017358301,0.013338711,-0.0052377777,-0.04586555,-0.037960317,0.035737306,0.012570739,-0.037521105,-0.0054915957,-0.011632282,-0.022909006,-0.0395217,0.0057220687,0.014023361,-0.008201525,-0.005767309,0.012193448,0.03540326,0.027099762,-0.030671448,-0.010210514,-0.0131391315,-0.0022689216,-0.016848586,0.01630967,-0.04374595,0.033631213,-0.033045515,-0.0263555,0.044916913,-0.031590458,-0.028207473,0.033536114,0.014562464,0.023346765,-0.030506078,-0.04158172,-0.042073343,0.017161593,0.04584474,-0.035998043,0.03502506,0.006546805,0.001173525,-0.016586222,0.041872468,-0.0077050817,0.044257596,0.042661965,0.003457103,0.007827552,-0.03993296,-0.020448841,-0.010895974,-0.017986737,-0.034712065,0.00811613,-0.026244398,0.021875815,-0.012974221,0.0032477542,0.037088756,0.009235137,0.033763178,0.026070703,-0.024221892,-0.015628647,-0.017075054,0.025898175,-0.022481496,-0.046822995,0.006398929,-0.028137483,-0.019311044,-0.013339803,-0.023299657,0.04239636,-0.019278426,0.0226648,-0.00667133,0.03964224,-0.044508934,0.027700318,-0.008682564,0.037352618,-0.043588627,0.022273736,-0.015405286,-0.004544009,0.034432717,0.007950254,0.023552973,0.02322169,0.040756773,0.023197547,0.0045776595,0.04444363,-0.042160172,-0.0047194287,-0.01656209,0.041407447,0.01641636,-0.04739179,-0.046091173,0.026115287,0.0026431198,-0.018714227,-0.0110285785,-0.010458119,0.012556776,0.015539697,0.015712518,-0.023628386,-0.012624534,0.006036503,-0.029636083,0.040211473,-0.017075105,0.035373252,0.003973468,0.044381816,0.026912693,-0.00031034276,-0.0017449455,0.0220846,0.03206545,0.020351056,0.0285853,-0.011851048,0.011254091,-0.0016829089,0.004729402,0.035987668,0.04062794,0.04182487,-0.012324583,-0.03386936,0.008567072,-0.005277629,0.02685496,0.046743315,0.015336874,0.04492105,-0.016096992,-0.029384676,-0.0148515,0.019423332,0.026278974,0.015603583,-0.015883373,0.005371981,0.033532176,-0.039585464,-0.007980988,0.009329603,-0.023088217,-0.022136832,-0.0013548514,0.04315118,-0.014218337,0.022504836,0.004888946,-0.016529555,0.016696624,-0.04426912,-0.040403824,0.020898731,-0.034132365,0.041910846,-0.04442415,-0.018657051,0.008583527,-0.011373715,0.019721778,-0.0007884147,0.032530654,0.0044828244,-0.0038514172,0.034749907,-0.034247946,-0.04496562,-0.017462898,0.04094558,-0.0026241392,-0.03270984,-0.02301398,-0.0179456,0.004521683,-0.02824769,-0.043584518,-0.04502781,-0.0011797961,-0.022342093,0.008608299,-0.023739764,-0.017227914,0.015611103,0.027663756,-0.008985963,0.04655042,0.029706847,-0.04240366,-0.047009774,-0.03665059,-0.019638902,-0.028706072,0.04551732,0.008425202,0.015087325,-0.005968813,0.030465133,0.013598088,0.0110831,0.01878542,0.045950502,-0.041722298,-0.042949434,0.02132812,0.02509551,0.04283331,-0.020742867,-0.00041583172,0.024658237,-0.0003781685,-0.018580012,0.040363535,-0.018101234,-0.021119732,0.019454898,0.016015727,-0.03368525,-0.010576512,0.025453385,-0.000643675,-0.025739038,-0.013402141,-0.034733467,-0.038794816,0.03131333,-0.0077977087,0.046547722,0.03880475,0.03527271,-0.014914833,0.009116558,0.042666405,-0.035518296,0.030555649,-0.030620554,0.022427168,0.02501163,0.03032999,-0.03391162,-0.022727342,0.0067111594,0.03203236,0.021406416,0.03965723,-0.010523734,0.022439176,0.03886532,-0.0033813948,-0.024668861,0.041469622,0.031348046,0.03950753,0.007558968,-0.044016715,-0.012862004,0.042749066,-0.03150686,0.03602524,0.035496797,-0.002536719,0.016136052,0.002337657,0.02731598,-0.016416125,0.0023784658,0.029972404,-0.032610737,0.032934975,0.0068066344,-0.04155372,-0.019323887,-0.015026293,0.0014504661,-0.031195283,0.014827713,0.0345441,-0.0019359551,-0.02555106,-0.012979206,-0.02773867,0.002194315,0.00809978,0.034476142,-0.04749409,0.04709999,-0.02873102,0.01730866,0.024678618,0.026218427,0.0072287708,-0.034391083,-0.027506484,-0.03701768,-0.04423457,-0.027806666,-0.04666444,-0.009189358,-0.020887485,0.03445979,0.010013931,-0.011213774,0.0007820035,0.024019962,0.028681695,0.04173063,-0.012355167,-0.00022054884,-0.047140487,-0.0071755126,-0.02037179,0.034341358,-0.035778362,-0.0060827793,-0.009373993,0.00043932605,-0.01896367,-0.023019036,0.0037946403,0.0049521215,0.015513008,0.017287308,-0.013056827,-0.044362444,0.038858283,-0.04598901,0.0023048709,-0.028312242,-0.042059384,0.01953894,-0.030595679,0.013526654,-0.015348706,0.041554768,-0.023817295,0.013797261,0.035072103,-0.035285987,0.026621988,-0.012050561,-0.036185604,-0.038831994,-0.021119779,0.03710844,-0.030064128,-0.0067154993,0.0077455495,0.015862655,0.02412777,0.018693466,-0.0124942865,-0.03143001,0.022985892,0.028887222,0.013413611,0.02625661,0.02321565,0.03887226,-0.032217637,-0.024390457,-0.04165696,0.045068998,0.0058469586,-0.03816497,0.030217802,-0.026237987,0.012520291,-0.03168986,0.02585723,-0.037022255,0.005099036,-0.030718578,0.009176074,-0.012482781,0.019803476,-0.002633608,0.039893586,0.013500094,0.040295172,0.02986467,-0.029740147,0.032247655,-0.023111092,0.041642215,-0.025922762,0.02759729,0.018275762,-0.014742747,0.036829088,-0.016231798,0.021036716,-0.0069659166,0.017891714,0.034453046,-0.018947171,0.04189207,-0.029711878,0.030856483,0.012811654,-0.022079047,-0.0039819335,-0.028209144,0.014330992,-0.020163795,0.04318494,0.039567556,-0.04556798,0.040135387,0.02660914,0.01644149,-0.020450065,0.04607012,0.03886377,0.0025458345,0.0460664,0.029661734,0.039943952,-0.015833938,0.01987823,0.025532808,-0.012689676,-0.035118178,0.047201477,-0.006062925,-0.04078476,-0.01934497,0.031439163,-0.020367308,-0.04217559,-0.028474944,0.0103422655,-0.024765449,0.0062623858,-0.037739646,-0.042959377,0.014165189,0.024824625,0.043587025,-0.041000754,0.013146938,0.026514605,-0.0342763,0.0129036,0.04621264,0.023753146,-0.037641756,0.024478713,0.010662231,-0.010067805,-0.001685871,0.018139081,-0.035436764,-0.036679193,0.018868107,0.02634383,0.036010716,0.033753254,0.025694648,-0.04742109,0.01967107,-0.017062386,0.034190863,-0.02552071,-0.033598,-0.032690953,0.01791105,0.018431235,-0.030584648,0.0020196654,-0.008943324,-0.03235408,-0.03519521,0.016666083,-0.009755004,0.0298401,0.02119608,-0.04664566,0.039080184,0.025685912,0.02598552,-0.02040871,-0.03465454,0.009342757,0.033227306,0.033584435,0.0021659173,-0.008081597,-0.03465952,0.029385667,0.026991222,-0.009579509,-0.035526663,0.04477749,0.021209177,-0.014268836,0.018935401,0.005042594,0.025555758,-0.034426756,-0.019278195,0.022016432,-0.0160835,-0.008851431,-0.006279897,-0.04322937,0.0006062798,-0.045779433,0.040138256,0.03491159,-0.0103139505,-0.01225104,-0.0016805276,-0.045453254,-0.024725089,0.00479996,0.020227332,0.014464758,-0.038734213,0.011376008,-0.023485547,-0.03488303,-0.019787494,-0.03681223,0.0214901,0.03769171,0.03702354,-0.0019904487,0.044603217,-0.02209232,-0.000916915,-0.0132366195,-0.044135638,0.040236328,-0.038634628,-0.014462172,0.028213967,-0.00053654786,0.032010306,-0.037863214,-0.03430359,0.010918659,-0.022905223,0.008376852,-0.018820077,-0.047117498,-0.019091828,-0.032374192,0.025222,0.015075949,-0.01646897,0.016698003,0.0133294705,0.03734957,-0.022838464,0.032511413,0.042181503,0.036809787,0.029622449,0.036758587,0.04691911,-0.007952244,0.014226889,0.035783153,0.047444273,0.018936547,-0.019317877,-0.04478166,-0.046376005,0.024982542,0.021100933,0.02455927,-0.034181602,-0.031355694,-0.005142897,0.015595648,-0.039818347,0.03819934,0.034776863,-0.01591306,0.020141382,0.012141902,0.013239642,-0.0019352249,-0.007639743,-0.022527589,-0.024529694,0.0031354323,0.007978009,0.03464369,0.043052536,-0.02707785,-0.03298572,0.039484482,0.012547806,0.030675137,-0.014198098,-0.005695034,-0.030635893,-0.03432644,0.020579651,-0.028195389,-0.042876333,-0.019277165,-0.038776394,-0.011113704,-0.04302538,-0.022285141,-0.031515446,-0.003811644,0.019206721,-0.009452536,-0.009392294,0.03643098,0.024676222,0.028596355,-0.010350276,-0.04598253,0.039366607,-0.028185282,0.014451727,-0.025504425,0.043856476,-0.029820085,-0.043391764,0.041782375,-0.015571717,-0.010832988,0.024118613,-0.038452096,0.044188216,-0.032898914,-0.01975413,-0.024295138,-0.020717477,0.043591946,-0.026022455,-0.0042023035,0.024312234,-0.013050665,0.046454024,-0.033787485,-0.03413592,-0.023960296,0.042969506,-0.036243074,-0.03772566,-0.010708787,0.014311921,0.036222603,-0.006751183,-0.023401082,0.018222598,-0.038096957,0.018524218,0.022577533,0.016683158,0.0067251907,0.014990239,-0.0063656145,-0.012376759,0.041482005,0.004570787,0.03542095,-0.03889858,-0.046707626,0.028025318,-0.030036474,0.011217099,0.010607899,0.028851634,0.00068921223,-0.011074007,0.007802265,0.024006944,0.016219016,0.021263694,-0.038541105,0.038444098,-0.04487111,-0.028141286,-0.029644815,-0.014280964,-0.006582522,-0.028331498,0.009062488,0.042410906,0.014480322,-0.0028904825,-0.010257326,-0.027171863,-0.004761411,-0.008610595,0.0010333813,0.025249336,0.044159953,-0.040955912,-0.030793073,0.028188897,-0.0017317832,0.028332205,-0.007820922,-0.0015396662,-0.00078347605,0.028515313,0.046438538,0.024688166,-0.037521284,0.01430276,-0.0032075485,-0.03765602,-0.031291325,0.020364448,-0.02379616,0.03642742,-0.0017871455,0.034290455,-0.010355726,-0.022145765,-0.0213083,0.029980395,-0.0037304647,0.008252215,0.00095999433,0.0138692595,-0.011889222,-0.04405781,0.0035457204,0.010235667,-0.01487257,0.046310436,-0.02921059,-0.036386482,0.026140185,0.042113837,-0.043419473,-0.009196974,0.01897074,-0.014756884,0.016313845,0.03903442,0.008770165,0.01713126,-0.019764112,0.020080078,-0.02674254,-0.018403307,-0.041614465,0.03518017,0.01545168,-0.023726163,-0.007275482,-0.008753332,0.03657205,-0.029660473,-0.04469775,-0.03037959,-0.028030083,-0.011795455,0.024922939,-0.024768954,-0.02181195,0.012311877,0.0401552,-0.04165709,0.03176541,0.043395013,0.023855006,-0.0435434,-0.014223606,-0.021516616,-0.015973315,0.047076415,-0.027807664,0.024430873,-0.04103568,0.024001034,0.01931836,0.042995814,-0.01236084,-0.027326535,-0.021955533,-0.04238841,-0.029535238,0.032781627,-0.00013972446,-0.01404997,-0.03991638,-0.0048955115,-0.040681224,-0.028604792,-0.025074601,-0.039864134,-0.020208599,0.035731662,-0.020441081,0.019002523,0.01796621,-0.033135667,0.0418822,-0.0013944831,-0.021086514,0.02600542,0.037318233,0.012000256,-0.0021941322,-0.017746503,0.0040745772,-0.0038921908,0.026650101,0.03412121,-0.04036444,-0.0214593,0.000020988402,-0.0033391975,-0.0095583685,0.03517431,0.014643278,0.0044330102,-0.043794762,-0.00757752,0.024510156,0.0291696,0.0033607902,0.037727077,0.0345213,0.028616417,-0.020429159,0.012460362,0.024010066,0.015093287,-0.042736724,0.017992701,-0.010396826,-0.028798068,-0.013988922,0.038964827,-0.038823005,0.03572486,0.006227102,-0.04370861,-0.034085143,0.03822767,-0.026744897,-0.015126027,0.0012680249,-0.022791764,-0.0035622506,-0.0031927992,-0.01969404,0.03533272,-0.031245315,0.004755385,-0.02046893,-0.027358945,0.020984955,-0.0017347559,0.015076377,0.0002610433,-0.036390893,-0.022904407,-0.03747281,0.036310982,0.02935801,0.010157191,0.01965567,0.031312823,-0.022132508,-0.040740024,0.008516472,-0.0041686525,0.03025235,0.046686385,-0.046184003,-0.040554266,0.024360303,-0.015477668,0.024002548,0.010041881,0.024653314,-0.0113318525,0.0005645767,-0.031775516,0.030529225,0.029714152,0.018407408,-0.030346908,0.043586574,0.032280214,-0.04593067,0.024103854,-0.025978345,-0.02894514,0.018734228,-0.019206662,0.040533584,-0.01173792,-0.0331692,0.02363313,-0.032781728,-0.033247195,0.025742639,-0.030635646,-0.029835409,-0.04626311,0.042918578,0.016833689,-0.014198177,0.014662102,-0.017199308,-0.035960414,0.009669841,0.026160218,0.009195857,-0.028011493,0.018891957,-0.007998375,0.04016942,0.003922785,-0.02774352,0.04710711,0.00041884792,-0.019936074,0.023699213,-0.04059168,-0.010391845,0.037112176,0.00040645257,0.022517066,0.0059284978,-0.010083593,-0.028344987,-0.023017233,-0.022902656,0.033042196,0.004615964,0.030449856,0.011672723,-0.022301223,-0.046005595,-0.033743992,-0.034518205,0.03464092,0.046952836,0.0040069222,-0.034855876,0.010608334,0.039354194,0.017006302,0.034167767,0.010666252,0.021095313,-0.015511658,0.011883789,-0.02590947,-0.036188465,-0.040790703,-0.04176062,-0.036694884,0.022853049,-0.032232113,-0.024294468,-0.02944996,-0.04249433,-0.031240271,-0.02746717,-0.036943626,-0.030493245,0.04752853,0.018163458,-0.015232532,-0.013146497,-0.006422974,0.027512413,-0.042185538,0.0024138428,0.019196687,-0.00524484,0.0020991229,-0.007782599,0.015828658,-0.011129542,0.0057695913,0.038266383,-0.028323658,0.04479697,0.0035028048,-0.038128383,-0.0074802595,0.030700844,0.009272544,0.023544509,-0.023387633,0.022222918,-0.009659983,0.028451659,0.023910541,0.03766304,0.028980328,-0.035834864,0.02875633,-0.012676376,-0.0072259866,0.04455508,0.03716972,-0.03251783,-0.032494385,-0.04672054,-0.024440944,0.044698853,-0.019508759,0.036853228,-0.016888442,0.0154979555,0.03498657,0.042778984,-0.015173747,0.04348207,0.018838534,-0.0006646312,0.03686734,0.0019130739,0.044884674,0.044910323,0.046679895,-0.007158514,0.040470522,-0.034766436,-0.023804847,-0.0033707023,0.009727728,-0.021098379,0.013394099,-0.03737337,-0.02345216,-0.0032200217,-0.033734288,0.037841666,0.007833097,-0.039396185,-0.022434995,-0.036026925,0.041012656,0.016195927,-0.011417758,-0.017784335,-0.032926034,0.018984716,-0.044147898,0.033441942,0.02326959,0.015370917,0.017584722,0.033903193,-0.016664786,-0.04379006,-0.027776353,-0.025633423,0.006287966,-0.008543905,-0.042077072,-0.022252152,-0.022767302,-0.028621044,-0.016614446,-0.03511442,-0.0150907375,0.033668797,0.031477537,0.029478353,-0.009265538,0.021471467,0.025302012,0.029859658,0.029534277,-0.044560224,0.03596649,0.013793483,-0.028914703,0.038217362,0.0047963373,-0.012829356,0.039770875,0.034391407,0.022014458,-0.029824818,0.007235367,-0.021403527,-0.0015774854,0.028767709,-0.0049837045,-0.019051263,-0.015739612,0.03287297,0.0138786845,-0.017884629,0.04269701,-0.019453418,-0.036789566,0.004229784,-0.026367975,-0.015096713,-0.0131839365,-0.017628938,0.0000034831464,-0.038850132,0.036882613,-0.030877197,-0.019566674,0.0020584427,-0.018991329,-0.017373811,-0.0059975386,-0.04311108,0.04590513,0.015670177,-0.031294648,0.046322707,0.020430882,-0.02770197,-0.020414269,-0.026080983,0.02043027,0.012678154,-0.010113008,0.03718951,-0.008375701,0.03377944,-0.032052312,-0.036500238,-0.020015992,-0.02673817,-0.035375882,-0.045177337,-0.024858883,-0.031701,0.036855374,-0.026084408,-0.03307262,0.001774501,-0.030743673,0.028202016,-0.046394084,0.0007522665,-0.03641022,0.04309347,0.04003838,0.032940235,0.0019734465,-0.047450464,0.04529554,0.043857876,0.021661926,-0.008743085,0.023680452,-0.03027418,0.046299506,0.02825563,0.006760258,-0.020645125,0.002617877,0.038177203,0.035871405,-0.042886846,-0.0039010346,-0.024471756,0.041635443,0.0013094433,-0.032129586,-0.013566233,0.0067613833,0.036291067,0.0243969,0.021979276,-0.0016846992,0.013679728,-0.033269558,0.041119915,-0.042332277,-0.024964202,-0.013112627,-0.005695451,0.0035608895,-0.010272726,-0.0331897,-0.0060743913,-0.010791663,-0.014296748,0.015222456,0.0028936677,0.019703534,0.0188866,-0.021850634,-0.046209835,-0.024483709,0.019742046,-0.014145877,-0.018706366,0.0076745003,0.030025233,-0.04459225,0.017200533,0.03260165,0.02486765,0.0180757,0.032592583,-0.03264713,0.003950797,0.033159297,-0.00518148,-0.046945103,0.045520257,0.011838406,0.022701632,-0.035870325,0.037093762,0.023765069,-0.032547947,0.008771904,-0.0041148923,0.046846125,0.03797843,-0.033404715,0.014529239,-0.021705817,0.045812096,0.034171734,-0.018067777,0.0117460415,0.0052370615,-0.017252697,0.02985521,-0.044703554,0.027391922,0.0033137165,0.013414554,-0.037892796,0.011145771,-0.024657512,0.009179931,-0.016375652,-0.04615606,-0.040385704,0.0051438436,-0.033836387,-0.020140862,0.025289174,0.035914656,0.044572163,-0.006688088,0.0019432046,0.04044461,-0.016228281,-0.00895438,-0.018556174,-0.034612164,0.008109521,0.019750636,-0.03651445,-0.025497995,0.042420547,-0.012565237,0.013329979,-0.029725736,0.026489954,-0.022910759,0.035190385,0.042355645,0.022311036,0.005888637,-0.022983134,0.03184085,-0.043807924,0.02363411,0.008965213,-0.043776702,-0.042385314,-0.011903286,-0.0036936067,-0.03212411,-0.005474426,0.013509735,-0.027029824,-0.031882275,0.04619379,0.03624161,0.0068452097,-0.045845695,0.020890307,0.0028644316,0.014174908,0.04411977,0.016031552,0.038654093,-0.04252015,0.029468182,0.029972631,0.038092647,0.006736424,-0.020399718,-0.021788737,0.012417562,-0.04109769,0.006199464,0.025661502,0.03643171,0.034409802,0.045977402,0.028595898,0.021235485,0.017874386,0.026167478,0.02954923,-0.018949665,0.01582409,0.011960171,-0.017130446,-0.047220185,0.044893462,0.028405141,0.045324784,0.023420226,-0.013378482,0.038400505,-0.04468405,-0.036581244,0.008736417,-0.007715974,0.012968309,-0.038059764,-0.01853862,0.007393509,-0.022726262,0.018171381,0.00031266734,-0.029511709,0.008414485,-0.0060275793,-0.035765357,-0.02188106,-0.009193029,-0.030046102,-0.028423596,-0.027795563,0.030670475,0.03182095,-0.01980166,-0.0029127747,-0.013198476,-0.024729375,0.0406153,0.02599753,0.0277518,0.013608806,-0.04524835,-0.014771618,-0.0052872524,-0.003378503,0.0029470436,0.0121358335,0.04576646,-0.017560849,0.038786795,-0.046349265,-0.010724224,0.0025522746,-0.029421257,0.039395187,-0.010986652,-0.037036415,-0.008030195,-0.03998863,0.010443773,-0.045270905,0.020439249,0.039908458,-0.0053634383,0.030718382,0.024720732,-0.03626446,-0.038735174,0.033428516,-0.04187851,0.038688067,0.02689309,-0.033248182,-0.030532628,-0.031151509,0.0433441,-0.01564492,0.003675975,0.0073992573,-0.041670166,-0.041136347,0.027698848,-0.026356919,0.037561778,0.0031952746,-0.004395861,-0.042073317,0.039343428,0.02055611,-0.019513737,0.012085345,-0.040950127,0.0061309934,-0.039905764,-0.029948076,-0.035133697,-0.0083577745,-0.008309826,-0.025097713,0.020411935,0.011330254,-0.043208707,-0.0053962357,-0.023137929,-0.0165226,0.035261538,0.0036954097,-0.00058750063,0.030226555,0.025213,-0.030530553,0.01580057,0.028411884,0.01510499,-0.026229441,0.03414951,-0.018109158,0.01369277,-0.035339877,-0.011742853,0.0038459785,0.041750725,-0.039853,-0.021246608,-0.018778209,-0.0159402,-0.03425978,-0.006242126,0.031903718,-0.023681339,0.01736084,0.04150017,0.03637204,-0.046642244,-0.015671708,-0.04027723,0.040413078,-0.020373432,0.032250818,-0.018325126,0.022091348,-0.04371245,-0.0007283278,-0.03066411,-0.00272806,-0.00081954896,0.013391376,-0.010010138,0.029292036,-0.0380462,0.0025732405,-0.014812533,-0.017239166,0.009482469,0.0139349215,-0.02086557,-0.0044905543,0.02733184,0.01084289,-0.02720052,-0.010827612,-0.0071592852,0.012227599,-0.033234153,0.02706981,0.021415878,0.0011666119,-0.028571146,-0.0071606003,0.012276657,-0.016777623,-0.024464691,0.0016621202,-0.031992856,0.033101108,0.008219261,-0.027029188,-0.03121632,-0.034864962,-0.046823453,-0.04594049,0.0057844855,0.043010805,-0.009447847,0.025122624,-0.019298598,-0.01886646,0.008942813,0.010646518,0.02608106,-0.031994317,0.004817251,-0.019058783,-0.007936489,0.028127145,0.032337237,0.006693203,0.03524286,-0.020333037,0.026483659,-0.00032192096,0.0051245876,0.043044727,-0.042716794,0.046725538,-0.0066187754,0.023179967,-0.043994248,0.014796,0.02005503,0.012195677,0.035912115,0.02483349,-0.004527785,-0.02586175,0.01318641,-0.026907211,0.015809435,-0.014446713,-0.036991756,0.009832218,0.045879696,-0.00063860044,-0.03802811,0.035648573,-0.0010996573,-0.00890081,-0.010473985,-0.0056955293,-0.022788418,0.0017624721,-0.031035135,-0.037303958,-0.037028395,-0.011533227,0.039269548,0.024604995,0.027542736,0.0028317124,-0.025276108,0.028729584,-0.014805626,-0.04480081,-0.018080706,-0.02255568,-0.0011775792,0.04215009,0.007831078,0.010535348,-0.020492017,-0.040380623,-0.003220167,-0.009621594,-0.03641402,0.00063307956,0.028979126,0.029219475,-0.01731576,-0.044663854,0.032736007,0.022202548,-0.04156471,-0.047327716,-0.02898498,0.03431679,0.008634321,-0.026951972,0.02471495,-0.03162012,-0.019156775,-0.03400157,-0.043207902,-0.012777146,-0.029470928,0.03893547,0.012501027,-0.029278697,-0.028917504,0.039076943,0.044920463,-0.011912141,0.0075500757,-0.042382356,-0.035542347,0.04710563,0.033590388,-0.035834126,0.02269968,0.0347364,-0.03683731,0.019399833,0.021322962,0.026244741,0.026237685,-0.028697522,-0.023470543,0.0038717426,0.018272754,-0.032909863,0.0010164529,-0.0088419765,-0.03692588,0.035511445,-0.014409505,-0.0033934154,0.023811366,0.02737509,0.020844456,-0.008880939,0.032107923,-0.045421995,0.012130253,-0.00033012033,0.03285118,-0.0185311,0.029237103,-0.029643303,-0.020779429,0.012295052,-0.041800283,0.0034143515,-0.04591215,0.017707337,-0.019471256,-0.022422077,0.041356582,-0.0110026635,-0.009334341,-0.037213314,0.00044228882,0.024069566,0.036069904,-0.00019603223,-0.038259614,-0.04437914,0.008253496,-0.002998665,-0.033927087,0.0027828142,-0.0082498565,-0.040112697,-0.0030642822,-0.0328865,-0.0040235557,-0.023976237,0.0422444,0.0038305074,-0.019660005,-0.032615446,-0.036777638,0.0069875903,-0.013916403,0.0015852079,0.03171395,0.02899665,-0.043665737,-0.036462713,-0.047404572,0.029880587,-0.0071457997,-0.004895635,-0.017632395,0.019184288,-0.02781473,0.0071546584,0.03612184,0.005467236,-0.040819373,-0.029023854,-0.03544152,0.030899208,0.046468105,0.037324075,0.046528388,0.034498516,-0.017314207,-0.043221544,0.04560897,-0.038769435,0.03209171,-0.0023232996,-0.01307939,0.009102885,-0.0071687885,-0.040775586,0.024165358,-0.017702105,0.034241285,-0.02876315,-0.024836589,0.045044016,0.041768033,0.018362638,-0.043446776,0.041090433,-0.012930501,-0.005710885,-0.013046127,-0.013982654,0.019317131,-0.016687127,0.015155289,-0.037007324,-0.015055172,0.04134347,-0.04119414,-0.013442192,-0.037808698,-0.015180018,0.012939971,0.03526881,-0.04645615,0.013929706,-0.018207707,0.015993979,0.022809934,0.04247808,-0.016132832,0.037816864,-0.017503874,-0.011300929,-0.0323945,0.037372645,-0.02022757,-0.047063813,-0.044993248,-0.0117305815,0.027539607,0.045204084,0.00530152,-0.005269017,-0.00862645,0.023830216,-0.0007657148,0.03919557,-0.025237085,-0.03459049,-0.0033615716,-0.017004227,-0.014525939,0.04328267,0.028252129,0.039468672,0.028794821,-0.044682518,-0.021883555,-0.038791876,0.0444025,-0.010268394,0.017915953,-0.026538309,-0.045847204,0.032768007,0.016655881,0.026798125,-0.04226615,-0.0072533414,0.017310802,-0.0041335598,0.045048144,0.037786897,0.0021602921,0.015400957,0.007276736,0.011107348,0.01807582,-0.0062019266,-0.028036252,0.008161437,-0.03932315,-0.023665633,-0.017942034,-0.016211964,0.032942455,-0.023896264,0.039732236,0.0177099,0.02295271,0.014599811,0.010169916,0.0053354166,-0.02015887,-0.017493658,-0.03411635,-0.038249247,-0.0117186755,0.045674104,-0.01421174,0.045795504,-0.041489523,-0.035362262,0.02002776,0.008241557,0.043161068,0.012719229,-0.00562717,0.042139966,-0.019614814,-0.003471572,0.023780864,0.0015122555,0.033273276,0.024726186,0.022990819,-0.03284031,-0.0062026307,0.045842733,0.0009832717,-0.0065780766,-0.008690558,0.008966278,0.0051091053,-0.0057707615,-0.031686176,0.022109572,-0.035883367,0.04036403,0.010287311,0.004294742,0.00056971976,0.03426983,-0.03263191,0.024206404,0.033165816,-0.046525985,-0.010793999,0.021946017,-0.02539305,0.045400653,-0.041897587,0.0378226,-0.0073232204,0.014454674,-0.028719194,-0.026490679,-0.02655364,0.015011366,0.04494031,0.006157391,0.024113048,-0.03152301,0.020497303,-0.012984414,0.027261812,-0.017973822,-0.018266404,-0.026348162,-0.0448507,-0.014218409,0.011561405,0.039350573,-0.007856652,0.014963988,0.0108867325,-0.01096632,0.01821139,-0.03410791,0.0041620247,0.025895383,-0.0008257963,0.03182699,0.03783716,-0.022833088,0.0005053171,0.018335704,0.018037524,-0.04278107,0.033824954,-0.02728081,-0.015053529,-0.04357568,-0.045913327,-0.030609516,-0.026126288,-0.012333564,0.0019526148,0.044297602,-0.027018132,0.025304366,-0.025236111,-0.0414438,0.0142638385,-0.007968277,0.028312538,-0.045929283,0.029436756,0.02745888,-0.012780003,0.026819404,0.015098531,-0.0021542832,0.016942795,-0.019495433,-0.0048499666,-0.032116443,0.00040063262,0.042517114,-0.014290635,0.0077103265,0.021459151,-0.016423337,-0.03675321,0.008947656,-0.0454691,0.037027773,0.007696945,0.033312324,-0.00244328,-0.03919377,-0.019896941,-0.042122215,-0.0005188808,-0.02438101,0.0256016,-0.041575234,-0.019708395,0.0057060197,-0.023029458,-0.0131855905,0.022443805,-0.03673425,0.045404214,0.04302297,0.00711764,0.02625013,0.040955696,-0.013101703,-0.031922158,0.042044945,0.03775378,0.032152854,-0.015880607,0.00021517277,-0.029572176,0.01976673,0.02598301,-0.014841525,-0.026398875,-0.020521076,0.016549228,0.042608935,-0.010849558,-0.032244142,-0.033604264,0.03473359,0.047307663,0.029618733,-0.034651674,0.045012902,-0.016077217,0.031834517,-0.03513683,-0.013807519,0.046794776,-0.009509176,0.031322557,-0.018699288,-0.04644972,-0.025678046,0.03325103,-0.013325635,-0.020849684,-0.028555496,-0.015018594,-0.04682823,0.01831076,0.009023325,0.00353517,-0.03159867,-0.03407035,0.022792974,0.022732046,0.032392744,-0.022490675,0.03143714,0.007059332,0.023224618,-0.009198926,-0.027105805,-0.016020276,0.0296236,0.006982509,-0.011002309,-0.044447,0.041457284,0.017742908,-0.03877251,0.033388935,-0.04496081,0.0036223345,-0.0085603595,-0.0472902,0.023992108,-0.020627478,-0.020030893,-0.017191753,0.007291087,0.04473338,-0.0028953608,-0.016458193,0.037040398,0.037422065,-0.025868688,-0.038802925,-0.04666531,0.0019940406,0.04272281,-0.0036805533,0.033810724,0.013597533,-0.011030727,0.043658245,0.046845984,-0.026689876,0.04036519,-0.037368495,0.038952272,0.037185475,-0.03967659,0.04284813,0.042991508,-0.03329648,-0.033305183,-0.007654328,-0.025994651,-0.021097027,-0.0020215416,-0.040846325,0.030271359,-0.033064656,0.030848365,0.017851677,0.046351273,0.033628765,-0.035968464,-0.026223714,-0.01674624,-0.007847832,0.033855285,-0.041015375,0.016571227,-0.015111353,-0.0202952,0.03825456,0.022841282,-0.019150607,-0.01685328,-0.039086524,-0.044580244,-0.04062333,-0.042241562,0.010617935,0.038744528,-0.008388381,-0.045532633,0.03496517,0.020183172,0.006270553,-0.018200833,0.012634106,-0.018566923,-0.020316144,-0.018344926,0.044244114,-0.035366084,0.022271309,-0.031083876,0.015357416,-0.015654884,-0.019938836,0.027028704,-0.030033663,-0.020113379,-0.027698658,0.02898655,-0.03873041,0.00087889284,0.04588862,0.015149466,0.0190779,0.015688783,0.033905555,-0.038586814,0.011004921,0.025149602,-0.0340968,-0.032297153,0.016111728,0.047085974,0.030923624,0.043923203,-0.0068533733,-0.032032724,0.03982568,0.023431916,0.028487656,-0.021803718,-0.047456905,0.047314115,-0.010217845,0.009258414,0.0037649833,-0.011103587,-0.038829718,0.0164111,0.0043487926,0.02196399,-0.024761729,0.022085179,0.032024514,0.027313564,-0.0114468,-0.009577401,0.01549672,-0.02169343,-0.027746117,0.047490746,0.01810103,0.0067064175,0.012040867,0.0141179515,0.00050373,-0.005085265,-0.011427663,0.013827543,0.00058533746,-0.013186496,-0.016479705,0.031126605,-0.001953559,-0.047483854,-0.013816234,0.01907542,-0.005284462,0.03505741,-0.005162701,0.01609341,-0.03810385,-0.029419556,0.018916354,0.016504329,-0.02723741,0.01903523,0.0046954425,0.020699965,0.009981488,0.01829882,0.013760195,-0.0033225068,-0.009768688,-0.016651178,0.005423882,-0.019991938,-0.026918925,-0.021761537,-0.0030156784,0.00479061,-0.009987942,0.02182423,-0.01906807,0.041449007,0.012262999,0.0438097,0.039678577,0.020206595,0.007921178,0.03248527,-0.010963608,-0.0474175,-0.03199794,0.007974666,-0.0390441,0.012877689,0.0150744505,0.0022261012,0.015424453,-0.0003949292,0.025603296,0.042326566,0.028747264,-0.045409612,0.042175915,0.013999244,0.006987568,-0.041812908,-0.038964856,0.04614153,0.028464867,-0.03620354,0.042111386,-0.04468955,-0.014502041,0.030540187,-0.0024937354,-0.0039301813,-0.041442133,-0.002230593,-0.0075603724,0.016543863,0.02914917,0.006144202,0.047546428,-0.010481627,-0.025143472,-0.015790623,-0.03665531,0.038358405,-0.04743292,0.044625264,0.005436478,-0.016332472,0.018547267,-0.014922797,0.011039541,0.007357849,0.0052416045,-0.03816887,0.028279828,0.042253148,0.013144802,-0.03312165,0.024997493,0.0150910895,-0.0005308736,0.0020455685,-0.027721524,-0.0063988804,-0.01784331,0.041039485,-0.047477707,0.019854624,-0.0038868382,0.0036956924,-0.04048194,0.011383762,-0.004696567,-0.0057343417,0.012627279,-0.0023901984,-0.018816764,-0.0142527595,0.036306642,0.02961604,0.02102978,0.023066174,-0.035094894,-0.013637676,-0.0039680027,0.03322512,-0.038094647,-0.027299583,0.015458119,-0.0038849914,-0.018702654,-0.022372762,0.041673522,-0.0035148684,-0.013932475,-0.0052294172,0.01958713,0.025710242,-0.027361063,0.015658516,0.013188971,-0.015589561,-0.017975364,-0.005588291,0.010563597,-0.021584231,-0.011102311,-0.018455744,-0.0005925216,0.036862705,-0.019226734,-0.020760957,-0.045961056,-0.027923632,-0.042678706,0.03855869,-0.007674262,-0.03670681,0.040099133,0.021147711,0.032893993,-0.040573638,-0.022413729,-0.013404214,-0.032457817,0.006215535,0.026109412,0.021512264,-0.019583976,0.036900826,0.016488884,-0.004503552,0.004183773,-0.006818903,-0.015443604,0.013444726,-0.0014986274,0.01329233,0.0037801906,-0.021509517,0.04585247,0.036718976,0.030403232,0.00077385997,0.029611005,-0.0069428715,0.039070357,-0.0051149735,-0.016613556,-0.015357016,0.032857046,-0.0010230346,0.02672432,-0.0053327275,0.02552411,0.037890624,-0.018840896,0.025813458,-0.02580838,-0.025042715,0.009494256,0.031149572,-0.027953481,-0.015853109,-0.031919505,-0.011251129,-0.020484183,0.03499229,0.022354534,0.046158243,-0.036374368,0.0067565106,-0.030395962,0.045963373,-0.01989455,0.006796084,0.007935538,0.0049560065,-0.034672923,0.018545497,0.0013271266,0.021682391,0.017203975,-0.04434599,0.0001709515,0.04698053,-0.04645765,-0.045752205,0.00056679477,0.028303046,-0.013811455,-0.00035342766,0.0019266009,0.026973158,-0.036212012,-0.013750171,0.03143629,0.005427597,-0.028473211,0.039133903,0.0057826834,-0.045506675,-0.014198642,-0.019312002,-0.04051266,-0.028313262,-0.036218286,0.003432152,-0.0023428837,-0.007143588,-0.01349945,-0.018093213,-0.035629146,0.041508846,0.007446278,-0.021988641,0.026088702,-0.036217183,0.038461156,0.01596412,-0.045233253,-0.046043023,0.018151432,-0.0032433835,-0.033386085,0.012288803,-0.040440544,-0.043989986,0.02999251,-0.036616582,-0.039242778,-0.044679265,-0.044944678,0.0063955383,-0.021046145,-0.0020308853,-0.04025099,-0.007611152,-0.010218689,-0.04465998,0.04238081,0.012244677,-0.036611788,-0.027943898,-0.01851927,0.021913309,0.045074936,0.04105424,-0.0047883634,-0.0071593225,-0.02624027,0.020582553,-0.008040672,-0.045854982,0.023790881,0.034299254,0.038528435,0.022202712,0.02534495,0.0188193,-0.0020489942,0.0018540946,0.043127928,-0.0031992097,0.031388685,-0.036724214,-0.022708077,0.016265308,-0.012929862,0.037029948,-0.025012277,-0.044550873,0.019423071,-0.040611375,0.0053840447,0.015694104,0.0052197953,0.028995218,-0.031020936,-0.021130512,0.02044896,-0.038260866,0.040613648,0.004323747,-0.01190589,-0.010076582,-0.013940022,-0.030036926,-0.041172232,0.034614522,0.01700161,0.0059140148,0.0007070191,0.008786694,-0.026422588,0.03525504,0.035486635,0.022349684,-0.046623543,0.022334065,-0.023218982,0.014558606,-0.017005306,-0.032716557,-0.009858865,-0.0064064674,0.016028278,0.028064681,-0.02364708,-0.022087278,0.00017783046,-0.015512572,-0.011177281,0.030213417,0.021704735,0.03889319,-0.010103843,-0.032511063,-0.021632534,-0.03451413,-0.00071109826,0.024016913,0.017905345,0.03927924,0.00080629805,0.031411596,-0.045237433,0.029339794,-0.005768324,0.025791004,-0.036800742,0.01789501,-0.002952753,0.009243036,0.0064220764,0.04633666,-0.03332894,-0.004731485,0.03470113,0.0038080204,0.01737871,0.036622502,0.017886164,-0.032414388,0.042814493,0.04350371,0.015824938,-0.012312878,0.013098086,-0.03781327,0.04137674,-0.007403644,-0.009657704,-0.020339811,0.012267856,0.030074159,-0.006091683,-0.022200348,0.01934407,0.03789313,-0.03843414,-0.0027923763,-0.028457643,-0.042941008,0.04301925,-0.02692794,0.03670232,0.00097094354,-0.007851386,0.007752267,0.03653821,0.008596143,0.036782615,0.031954512,0.037513543,-0.007304884,-0.012753184,-0.009912098,-0.014129576,0.03745584,0.038240805,0.02221999,0.03180829,-0.005587506,-0.041100778,-0.020579811,0.0451681,-0.021588983,0.009156059,-0.045623876,-0.011388986,0.035136655,-0.015459398,0.03237309,0.033779766,0.025262663,0.04642228,-0.03389863,0.03559514,-0.043417577,0.014426695,0.019654747,0.042264048,-0.009154588,-0.02160533,-0.046255395,0.042124677,0.001489441,-0.033878215,-0.00429143,0.005448878,0.039759543,0.0025437428,-0.0095600365,0.010141762,-0.008379454,-0.046839695,-0.026967952,-0.025189077,-0.02151585,-0.04203834,0.02014829,0.009101399,0.024302341,-0.0022405174,0.036586672,0.033110894,0.017886154,-0.04251374,-0.042347517,0.010337396,0.025562197,-0.009994661,0.035324566,-0.029749645,0.01310048,-0.043550204,-0.005094653,0.00065379415,0.02159519,-0.04185365,0.019439915,-0.00061916135,-0.046902124,0.0028210029,-0.026937207,0.00018556323,0.030304564,0.0066422867,-0.010238948,-0.023304196,-0.012129997,0.008205468,-0.016205113,0.032801706,-0.011211726,0.018637478,0.03952291,0.029587273,-0.0056573786,0.008265248,-0.018907076,0.04473544,-0.027849248,-0.041954845,-0.030247148,-0.01439849,0.04309904,-0.0103700245,0.012058489,-0.0056985025,-0.03794459,-0.014765754,0.0034203466,-0.0047016083,0.000037918362,0.004002186,-0.030217793,0.006283854,-0.010935367,0.04186338,-0.02413897,0.03694133,-0.026165243,0.028324505,-0.001539133,0.037352726,0.038415283,0.008350152,-0.030721845,-0.022108559,0.027248794,-0.04539772,0.030642778,-0.008480259,0.010859487,-0.037840363,0.00036991315,0.038127538,0.041526776,-0.027785512,-0.0030506086,0.0027508994,-0.036844585,-0.02456762,-0.03425142,-0.030974345,-0.015615888,-0.0020746647,0.024224898,-0.018101446,0.007905378,-0.015573718,0.024280822,-0.036796458,0.047358535,0.0036712412,0.023331922,0.0065640514,-0.015773477,0.009859781,-0.03354689,0.04232971,0.04202524,-0.025669847,-0.027576255,-0.03189696,-0.026209712,-0.027333938,-0.019481087,0.03900531,-0.008452778,-0.036439024,0.046164244,0.03474946,-0.018014694,-0.03261932,-0.011980075,-0.020077556,0.031846654,0.014192657,-0.04703844,0.047894552,-0.043270268,-0.030017026,0.024340712,0.027246889,-0.014870621,-0.0034039032,0.011741682,-0.017274188,0.021858543,0.014884059,0.033075135,0.011622393,0.012917228,0.031546153,0.0034964443,-0.04011757,-0.0022536824,-0.04280019,-0.017517451,0.037970793,-0.023371652,-0.034652054,-0.00054956425,-0.03148558,-0.0014650873,0.0038011076,0.0099825645,0.012972603,0.017297894,-0.005976475,-0.036891647,-0.021798978,0.01973329,0.014351223,-0.033348717,0.0070188753,0.015263322,-0.0004115507,-0.044949297,-0.02040764,-0.020090407,-0.03767804,0.03635142,0.010525941,0.03478522,-0.010561284,0.04282485,-0.012746767,0.04750931,0.035931893,-0.023462545,0.03520263,-0.04071099,-0.024982067,-0.027670022,-0.026457077,0.025851365,0.003248009,0.014281492,-0.014446169,0.029553603,0.020945694,-0.010362714,0.019931464,-0.015616827,0.044788126,0.030949537,-0.04401483,0.0044814344,-0.019909618,-0.03591864,-0.03042408,-0.006828724,-0.012555439,0.02854962,-0.025656978,-0.045337398,-0.030965704,-0.015622663,-0.03192768,-0.04426614,-0.014869867,0.01094461,-0.022020232,0.012943432,0.03198143,-0.042909075,-0.02674504,0.025405888,-0.01663624,0.012641369,-0.01650931,0.0028300155,0.013040677,0.0047858697,0.044255868,0.0025749032,-0.04499365,-0.0055860877,0.02803079,0.015454049,-0.033127327,0.0010037915,0.035189077,-0.0074429223,0.019805485,-0.008893121,-0.040237688,-0.018417144,0.021021362,-0.02436557,0.021887202,0.009254952,-0.013866014,-0.022413453,0.041513916,0.030690484,-0.0245904,0.014948781,-0.0007583742,-0.042547744,0.04444572,0.013262977,-0.018628944,0.021758389,-0.015718492,0.013639257,0.003921439,-0.040293932,-0.03639135,0.041277982,-0.000043793076,-0.019276753,-0.007940402,-0.043726645,0.011931304,0.008615548,0.030123752,0.013933693,0.043662615,0.01713542,0.037563395,0.025330955,0.012347651,0.008226201,0.04414022,0.017552096,0.04606909,-0.04326074,-0.0069544152,-0.0364841,-0.044467688,-0.017671486,-0.016178772,-0.0050700307,-0.019915577,-0.0065862504,0.041447043,0.04755426,-0.0065352223,-0.01673799,0.018285671,-0.012370378,0.022820942,-0.037961986,0.043656535,-0.004407117,0.046900537,0.043075822,-0.04326021,-0.0075466475,0.020663872,0.026757792,0.019732889,-0.04729663,0.025432661,-0.037314966,-0.0010783587,0.01755686,-0.00046583416,0.034637246,-0.0018445817,-0.035643216,0.000100037105,0.010269019,-0.017239658,-0.04651685,0.02281076,0.017146302,0.03562244,0.012991927,-0.016375814,0.047211092,0.047271363,0.046843763,-0.015758181,0.031296507,0.04637485,-0.035469305,0.04262885,0.01779434,-0.0072619827,-0.000942511,-0.037418462,-0.028167497,-0.029575229,0.04595176,0.001616942,0.029401854,0.00005108333,0.029557051,0.0034015162,0.039116535,0.0037202397,-0.012560739,-0.003454071,-0.0005541982,0.036947615,0.022238817,0.023376739,0.028057693,-0.0049738674,0.0069374847,-0.015819455,-0.040344264,-0.016086418,-0.008539739,0.014535163,-0.041079152,-0.012172916,0.0141358925,-0.0041504647,0.022816697,-0.041887376,-0.027760806,-0.04366798,-0.022986038,0.011871244,-0.034782227,0.0052276654,0.035083685,-0.03950699,0.023466896,0.007152799,-0.01718599,0.020244634,-0.018790256,-0.011256595,0.04142911,0.044898793,0.026454763,-0.03784361,0.010642013,-0.022957772,-0.0008197873,0.0034878824,0.01183397,0.024072811,0.023335097,0.015149135,0.024341902,-0.00475111,-0.03302563,0.000585982,0.011102666,-0.018944608,-0.04094752,0.046204004,0.0011498182,0.011545084,0.039450563,-0.034355022,-0.00084388524,0.041457504,-0.033441328,-0.009203937,-0.0010827618,-0.023915892,0.04605055,0.0390858,-0.016613102,-0.036575917,0.02367497,0.03756,-0.031230548,-0.00021915404,-0.032485764,-0.02666517,0.039182704,-0.038757116,-0.023653375,0.011472109,-0.0134931365,-0.021159654,0.008597023,-0.03840214,-0.005296473,-0.027985781,-0.008445937,0.021309255,0.04606854,-0.010929956,0.042254813,-0.011103164,0.018033126,-0.015602191,-0.0026696846,-0.0059175827,0.012233529,0.0027923316,0.039769925,0.03452262,0.019391198,-0.006612915,0.027860634,-0.0049038855,0.015002775,-0.045648426,-0.026027953,-0.01839978,0.0017954836,0.015839852,-0.0030389794,-0.012855908,-0.019521313,0.030686771,0.005929216,0.046135597,0.004405614,0.0088962065,0.037192333,-0.02325356,-0.031973887,-0.04324108,0.022306254,0.04242475,-0.03698371,-0.0140695395,-0.007791591,-0.021381162,-0.013242529,-0.007006418,-0.008360803,0.024566134,0.014178691,0.012424874,0.010738718,-0.0051758746,-0.018801687,-0.0047794236,0.035542596,-0.023577197,-0.016366757,-0.013367114,0.020816764,-0.013733493,0.031477425,0.04009561,0.014849971,-0.032446537,0.03941692,-0.004546193,0.04160044,-0.006708667,0.008580262,0.005696614,-0.04432307,0.0018455416,0.019126674,0.00047893572,0.002258835,0.03749565,-0.017654693,-0.013334986,-0.016425515,-0.009409495,0.044768,-0.012069927,0.022546297,0.009880523,0.008821658,0.025626052,-0.04033822,-0.03248633,-0.046634957,-0.00022206368,-0.037773155,-0.022935782,0.019415468,0.0053395177,0.032299172,0.006474452,0.014053912,-0.025417702,-0.038193777,0.017516477,0.035284445,-0.02687565,-0.025017703,0.037396744,0.04847873,0.0052876747,-0.015124715,-0.0011231326,0.016000966,0.029536262,-0.025752207,-0.03464507,-0.034172956,0.002864431,0.041683078,0.015807359,-0.041094627,0.023580112,0.04028275,-0.0037853625,-0.0075119683,0.020238787,-0.033363614,-0.013194106,-0.029674638,-0.018988028,0.04665495,0.0065246695,0.0224613,-0.019642573,0.028028743,0.021532817,-0.040835183,-0.030337114,-0.001075403,-0.013974231,0.015326098,-0.010604305,0.011184116,-0.013702243,-0.038242616,0.04036722,-0.037945077,0.015890278,-0.028962469,0.029502505,0.029833965,0.045431595,-0.016042646,-0.019061513,0.01299354,-0.027101558,0.03383738,-0.0047567487,0.035583667,0.020339128,-0.019079857,-0.042710863,-0.005774135,-0.04219894,-0.03133647,0.027912136,-0.002181525,0.003918171,-0.0018454791,-0.0010523449,0.042370263,0.036361307,0.0120061,0.03375963,-0.01432797,0.0016226191,0.02949828,0.000052642925,0.018427666,-0.028491052,-0.003379666,-0.007246968,0.021679461,-0.03243056,0.01814626,0.032131795,-0.025996065,-0.0011511043,0.045354154,0.03553225,0.03807468,0.02473665,-0.0014311675,0.023602528,0.022099739,0.023247542,0.033780996,0.04351826,-0.0126337595,0.033026423,0.041161574,-0.020289542,-0.018191524,0.030126642,0.042559013,0.026844526,-0.045902617,0.047320284,-0.011415692,-0.0308124,-0.035972834,0.008521089,-0.030896422,0.025765533,0.028256303,-0.038233325,0.029796405,0.028097888,-0.016118784,-0.019766208,-0.019360341,0.037783846,0.028656857,-0.034492295,0.0409719,0.0043317983,0.047798198,0.01618167,0.03630218,-0.042518396,0.019088821,0.008531334,-0.040532038,-0.0295601,0.039530914,-0.007983697,0.029858282,-0.037161406,-0.02933839,0.042119347,0.043311607,-0.036165416,-0.009430417,0.0032301708,-0.020312287,-0.040709786,0.036961894,-0.04301651,0.039906114,-0.008236122,0.022281038,-0.022764463,0.017101467,0.042419516,-0.029356664,-0.000052052343,0.009639177,-0.04727017,-0.030519262,-0.026806258,-0.030032182,0.04645951,0.01714711,-0.0004910447,0.028435614,-0.0016319936,-0.025843794,0.028415209,0.030937938,-0.008887294,0.012250649,0.041104738,-0.038339395,-0.028870912,0.028581329,0.0050314222,0.035599776,-0.015143838,0.029314758,0.004673232,0.036786597,-0.04268465,-0.027113538,0.027299445,-0.034868535,-0.020708654,0.017358791,0.04641947,-0.0013797863,-0.008400769,0.032286808,0.030574284,-0.008551918,0.017785445,-0.017881176,0.045685917,-0.00071283226,-0.024760911,-0.023703355,-0.040609144,0.007546208,-0.019787816,0.046406332,-0.015693335,-0.025526289,-0.041126978,-0.032009657,0.031770498,0.0224064,0.022713058,0.0137659665,0.0045022573,-0.034642916,-0.018125527,-0.019053703,-0.01380118,-0.025858724,0.019132806,-0.009421139,0.03573889,0.0006300104,-0.0008935496,-0.038688228,0.04671315,-0.00994174,-0.027195672,0.01743413,-0.027548572,-0.003739764,-0.0020288618,-0.03832034,-0.011872193,0.004083947,0.031770106,-0.008483322,-0.00041320102,0.028503446,0.012497674,-0.03156155,-0.0063186153,-0.03804226,-0.043060623,0.033071473,0.03263732,-0.025016978,-0.012530468,0.047463063,-0.039163623,-0.019162102,0.008925909,0.04618358,-0.015023099,-0.010737504,0.02976511,0.027991014,0.02139527,0.0010830986,-0.034510493,0.025097435,-0.010302333,0.035554267,-0.0065249423,0.027127152,-0.023384895,0.045634437,0.023131471,0.011412942,-0.033010792,0.04117225,0.03977392,0.0368279,-0.030540006,-0.046003506,-0.01738893,-0.016978918,0.01795644,0.02656508,-0.0015934784,0.011238812,-0.017638246,-0.03739563,0.013598182,0.0011681792,-0.04563035,0.014733211,0.029217232,0.039056495,-0.0016287158,0.030965386,-0.011963692,0.040014714,0.005589691,0.04251884,-0.0006293289,0.01782874,-0.014089714,0.005170179,0.04006128,-0.028385952,0.01824547,-0.020226663,-0.0032506576,-0.0009571307,-0.0397154,0.02521455,0.0024838157,0.0009982395,-0.019610045,0.00035990163,0.026612941,-0.014697127,-0.018271767,0.04206217,-0.022886325,-0.00819707,-0.02375326,0.002411779,-0.0015368372,-0.03810614,-0.03724793,-0.016469056,-0.021276211,-0.028212737,-0.012516871,-0.003801628,-0.007389361,0.013409251,-0.0066320584,0.00010861913,0.027603744,-0.037133485,0.047430404,-0.009891044,0.0062199794,0.026134273,0.028216043,-0.035185177,0.016518118,-0.04690569,0.043081127,0.029504476,0.042849388,0.0019122609,0.009136495,-0.0109695215,0.034419443,0.008537028,0.017470501,0.03213338,-0.021976393,0.014748311,-0.007850441,0.047429014,-0.038379423,0.010745479,0.015152757,0.027577793,0.04624794,0.0020781753,0.0005288236,-0.021034364,-0.0014532647,0.02585735,0.011477684,0.00026616082,0.01569677,-0.025503997,0.036333557,0.038219932,0.03829013,-0.008028646,0.045410275,0.040287,-0.044255164,0.02852035,0.005253788,0.0080132885,-0.037718635,-0.017573142,0.043619134,0.039058916,-0.014261499,0.04733683,-0.032896686,0.00068711914,0.034932714,-0.045203473,-0.02735003,-0.0057608313,-0.03672627,0.023198823,0.0144836735,0.025481252,0.031315725,0.015622193,0.0013486037,0.018303808,-0.0041871015,0.0016499477,0.024321634,-0.041603785,-0.044234067,0.04057672,-0.013189248,-0.04331989,0.0010681275,0.03599736,0.034904916,-0.046824936,0.029326512,0.006634633,0.037302557,-0.012242473,-0.04282646,0.03858486,0.03656386,-0.00913435,-0.031576708,0.00023986003,0.0018112463,0.0023653214,0.018586317,0.00046016707,-0.034273695,0.0076013617,-0.046227008,0.03080788,-0.02593259,-0.016176535,-0.034662005,-0.014863902,-0.039958347,0.012458163,-0.03407991,0.04401977,-0.0028619557,0.025840502,-0.04187642,0.031378254,-0.037830923,0.007639276,-0.01544961,0.020945853,0.0063427943,0.024600431,0.03904986,-0.018343095,0.017109614,0.042028125,0.0007451421,-0.042936668,-0.01831586,-0.00925404,0.03518497,0.019786002,0.029366886,0.038060177,0.044512082,-0.045235418,0.013552021,0.0071270876,0.037348714,-0.010778603,-0.041981928,0.011331875,-0.02998849,0.022460556,0.03900931,-0.040574186,0.026782226,0.011869708,-0.032573313,0.006973925,0.04181608,-0.015646484,-0.02013975,-0.01412312,0.011575634,-0.009675857,0.036511473,0.040860742,0.026912248,-0.039558817,0.023285817,0.04458006,0.016277965,0.023277968,-0.03946261,0.03806098,-0.01772065,0.021953864,0.041706257,0.032679513,-0.024254363,0.020589478,0.015459541,-0.01214274,-0.01382985,-0.035573564,-0.0177557,-0.012530253,0.047412634,0.028940713,0.021983704,-0.04531415,0.022849618,0.0025071914,-0.016732452,-0.012423454,-0.025838431,0.01701997,0.03665154,-0.015681896,0.04419368,0.0034982306,0.0464015,0.0052102813,-0.017879331,0.016288402,-0.015042742,-0.035880502,0.010069098,0.024587417,0.006738227,0.036231715,0.0057945508,-0.039523304,-0.03878654,-0.012138439,0.020429011,0.01891091,-0.034739137,0.036097404,0.028810177,0.0027465667,-0.04702698,-0.03025009,0.04481305,0.04634784,0.028104885,0.0104511045,-0.043252822,0.038372427,0.0348271,0.022582386,0.015387807,-0.01167192,-0.013380376,0.026734237,0.0075166784,-0.0039007403,0.014005501,0.026655653,0.0015460333,0.0051273047,0.0114870425,0.03578533,-0.02318167,0.024548903,-0.0007228404,0.042414926,-0.01852645,0.011328729,0.030697895,-0.041456126,-0.0042906115,-0.00041226562,0.03688938,0.008968677,0.01700728,0.038399234,0.02623169,0.02897371,-0.041298635,-0.03598007,-0.017866587,-0.027867904,-0.012760977,0.038683664,0.032722622,0.0081560975,-0.027553607,0.013556241,-0.04470933,-0.021522064,-0.03724427,-0.030218614,-0.017039843,-0.025320433,-0.032391325,-0.013455101,-0.028054636,0.00090733235,0.038008798,-0.03627287,-0.00205686,0.011582226,0.020968689,0.041479968,-0.035681993,0.045349382,-0.041460425,0.0039489237,0.0143700205,-0.011467559,-0.013476609,-0.04021942,0.0016174268,0.005422704,-0.030221255,-0.03430144,0.009932554,-0.023533095,-0.019537052,0.03632861,-0.04481928,0.036562886,0.013161497,-0.04134173,0.032733798,-0.013617479,0.020396452,-0.015299596,0.013344552,0.019860176,0.035882443,-0.040268864,-0.0053605456,-0.022057459,0.00537833,-0.037881795,-0.0320095,-0.012867826,-0.03965824,0.008040479,0.002634881,-0.0018801142,0.015852513,-0.042681765,0.017769268,-0.021222169,0.043581165,0.005975992,0.021247972,0.023637645,-0.021948807,-0.014063132,-0.023694132,-0.037209224,-0.004527852,-0.014429656,-0.023657797,0.04367395,0.0039616856,0.032482777,0.03783312,-0.00497156,0.028882708,0.03259143,-0.019153813,-0.031484082,0.024561461,-0.025728896,-0.03355663,0.024946,0.015771724,-0.0062012873,-0.0073271915,0.001750124,0.03850018,0.042504568,0.007711054,0.009275755,-0.037321214,-0.019278105,-0.047431163,0.023713501,0.028568547,0.013230342,-0.01691335,0.039884776,-0.015487548,-0.03493177,-0.036642868,-0.01832974,0.029800188,0.023325954,-0.026622029,0.0014915594,-0.030689655,-0.044118613,-0.035907887,-0.006405123,0.013964788,0.03638984,-0.028717505,0.027749848,-0.0013431236,0.005206556,-0.012271341,0.0028625026,-0.04159441,0.016762698,-0.01875904,-0.044452593,0.0035863721,-0.012074687,0.038701396,-0.039152075,-0.030908031,0.037705977,-0.034271214,0.028099569,0.03077828,0.008306254,-0.02740075,-0.03629414,-0.020588083,-0.046934582,0.015100295,0.03858832,-0.028852955,0.035906468,0.0057103857,-0.04457867,0.013515892,0.009899791,-0.027799271,-0.0033775656,-0.02157183,0.013946716,-0.0310233,-0.037957273,0.016698908,0.015268769,-0.020882247,0.0291926,-0.008762773,-0.020199843,-0.04745014,0.019789573,0.0064005046,0.04068628,-0.037044577,-0.021554563,-0.020138197,-0.04578354,0.012613384,0.012255482,0.045082983,-0.03399483,0.03746735,-0.032503832,-0.033400275,-0.046530046,0.04189216,-0.034320567,0.009923894,0.03340508,-0.032480367,0.02572741,0.019685317,0.041854296,0.046507604,-0.027035959,0.020706894,0.029307377,0.010037027,0.036637027,0.04310524,0.042448517,-0.0049908943,-0.011619373,-0.00034138188,0.042263452,-0.039282214,